<?xml version="1.0"?>
<opencv_storage>
<opencv_ml_svm>
  <format>3</format>
  <svmType>C_SVC</svmType>
  <kernel>
    <type>POLY</type>
    <degree>3.</degree>
    <gamma>1.0000000000000001e-01</gamma>
    <coef0>0.</coef0></kernel>
  <C>1.</C>
  <term_criteria><epsilon>1.1920928955078125e-07</epsilon>
    <iterations>1000</iterations></term_criteria>
  <var_count>324</var_count>
  <class_count>4</class_count>
  <class_labels type_id="opencv-matrix">
    <rows>4</rows>
    <cols>1</cols>
    <dt>i</dt>
    <data>
      0 1 2 3</data></class_labels>
  <sv_total>42</sv_total>
  <support_vectors>
    <_>
      3.81782144e-01 1.33993164e-01 1.17810830e-01 1.87375262e-01
      3.81782144e-01 0. 0. 0. 3.41543704e-01 3.81782144e-01
      3.93170444e-03 1.58694957e-03 0. 4.13002400e-03 0. 0. 0.
      3.81782144e-01 2.92960368e-02 6.26462046e-03 1.77879562e-03
      1.33259241e-02 3.81782144e-01 0. 0. 0. 1.05100842e-02
      1.61594376e-01 7.91062340e-02 1.07267335e-01 1.76701978e-01
      6.86431080e-02 0. 0. 0. 5.25983274e-02 2.70818204e-01
      1.53642741e-03 4.20295051e-04 0. 1.22540339e-04 0. 0.
      1.57363422e-04 2.70818204e-01 2.70818204e-01 7.36842048e-04
      9.69911634e-05 0. 8.83345492e-05 0. 3.89672583e-04 1.79062702e-03
      2.70818204e-01 2.70818204e-01 1.96886301e-01 1.95553288e-01
      2.70818204e-01 7.59755969e-02 3.93766984e-02 3.71993966e-02
      6.40276670e-02 2.40650088e-01 2.70818204e-01 1.55465767e-01
      1.15314841e-01 1.47626594e-01 9.68689993e-02 2.70818204e-01
      2.34522492e-01 2.56584466e-01 2.70818204e-01 3.61097902e-01 0. 0.
      0. 3.88617394e-03 0. 1.59342086e-03 4.17325227e-03 3.61097902e-01
      2.69002199e-01 0. 0. 0. 3.61097902e-01 1.99694738e-01
      1.21828221e-01 1.33479401e-01 3.61097902e-01 1.20929189e-01
      8.68483633e-03 2.53842748e-03 1.96678983e-03 7.69119263e-02
      2.46815339e-01 1.53129533e-01 1.26335233e-01 2.44016036e-01
      6.97831362e-02 0. 0. 0. 3.61097902e-01 6.59539104e-02
      1.58688594e-02 2.97778267e-02 9.29825604e-02 6.37523532e-02
      8.69892985e-02 9.31131095e-02 1.48995817e-02 2.56780237e-01 0. 0.
      0. 1.08471122e-02 2.97171205e-01 1.86861247e-01 1.45557955e-01
      1.07170410e-01 3.02831829e-02 0. 0. 1.95808461e-04 1.19514666e-01
      8.85497406e-02 1.89669505e-01 2.97171205e-01 2.97171205e-01
      2.97171205e-01 1.18366228e-02 4.04983934e-04 0. 1.16177686e-02
      2.97171205e-01 2.97171205e-01 2.97171205e-01 2.97171205e-01
      4.80399840e-02 3.02780811e-02 2.35284548e-02 3.30131538e-02
      2.68733889e-01 2.37577006e-01 1.50336608e-01 1.55982882e-01
      2.37577006e-01 6.28912523e-02 4.95567806e-02 2.78970022e-02
      3.31202559e-02 1.28720954e-01 1.84574068e-01 8.68400410e-02
      8.71568099e-02 1.53690055e-01 8.82098675e-02 2.37577006e-01
      1.79621369e-01 1.59128785e-01 2.37577006e-01 2.37577006e-01
      2.18776122e-01 1.69016629e-01 1.99379042e-01 5.39770238e-02
      1.17499493e-01 7.68806338e-02 8.39530826e-02 2.37577006e-01
      2.37577006e-01 1.34947270e-01 1.31959885e-01 2.07680821e-01
      7.93624893e-02 2.37577006e-01 1.58713728e-01 1.53480917e-01
      2.37577006e-01 2.17451558e-01 4.80605196e-03 1.84748566e-03
      3.41459410e-03 4.07784432e-02 1.61576092e-01 9.85191017e-02
      8.10851306e-02 3.31269622e-01 2.48197675e-01 1.11340464e-03
      1.08598662e-03 4.61945217e-03 1.85382828e-01 8.75567570e-02
      5.89544550e-02 8.24278817e-02 3.34552586e-01 3.34552586e-01
      5.51080629e-02 4.04618494e-02 4.68024239e-02 2.61561964e-02
      9.20534953e-02 6.91661909e-02 7.66558200e-02 3.34552586e-01
      3.34552586e-01 9.36573595e-02 7.18301311e-02 1.28236771e-01
      1.33667737e-01 1.52566358e-01 9.31959897e-02 1.22882999e-01
      3.34552586e-01 3.77190970e-02 7.42189214e-02 2.43235081e-01
      2.48633549e-01 2.48633549e-01 1.08348757e-01 4.22098264e-02
      4.55684327e-02 3.13012227e-02 2.48633549e-01 2.48633549e-01
      2.48633549e-01 2.48633549e-01 1.28277883e-01 1.11318693e-01
      6.27109632e-02 7.03067705e-02 1.21685684e-01 1.78471357e-01
      5.24883382e-02 4.97154184e-02 1.35184199e-01 2.48633549e-01
      1.73478186e-01 1.09427877e-01 1.35889217e-01 2.48633549e-01
      2.48633549e-01 1.22918881e-01 1.40717492e-01 2.48633549e-01
      1.09536476e-01 9.71155614e-02 6.09872006e-02 7.97495022e-02
      2.48633549e-01 2.37993911e-01 1.58381313e-01 1.32013723e-01
      1.75222069e-01 8.69524702e-02 2.37993911e-01 1.57303870e-01
      1.41855732e-01 2.09487155e-01 2.37993911e-01 1.81005985e-01
      2.01263621e-01 2.37993911e-01 9.43048447e-02 1.79883212e-01
      1.06112577e-01 1.05140321e-01 2.33668476e-01 2.37993911e-01
      7.26833716e-02 7.33931437e-02 1.34287909e-01 7.15533569e-02
      1.77165315e-01 1.03103645e-01 9.51811448e-02 2.37993911e-01
      2.37993911e-01 1.23892576e-01 1.29947886e-01 2.09642410e-01
      5.99814244e-02 9.76942852e-02 6.31013438e-02 7.29260072e-02
      2.37993911e-01 3.09385389e-01 1.20617330e-01 1.31624997e-01
      2.02060983e-01 4.72266674e-02 8.73160921e-03 1.02701047e-02
      2.08025463e-02 3.09385389e-01 3.09385389e-01 1.60312980e-01
      1.18440196e-01 1.82950526e-01 1.77751124e-01 4.95719239e-02
      2.34875325e-02 2.93715894e-02 3.09385389e-01 3.09385389e-01
      6.77288249e-02 8.59172419e-02 1.43718600e-01 3.98970582e-02
      1.87797146e-03 1.56397920e-03 4.63634171e-03 2.88656533e-01
      3.09385389e-01 9.50439498e-02 7.57742748e-02 1.21396244e-01
      2.07591936e-01 0. 0. 0. 2.19560087e-01</_>
    <_>
      0. 0. 1.34123222e-03 2.25403421e-02 1.02420345e-01 3.67085487e-02
      1.50880003e-02 7.51878321e-03 4.80651506e-04 2.48407628e-02
      4.59467582e-02 1.41478330e-01 3.28160495e-01 3.28160495e-01
      3.28160495e-01 2.79913485e-01 2.92762280e-01 1.63328916e-01 0. 0.
      0. 0. 1.64810270e-02 8.89964588e-03 6.15015114e-03 4.36856970e-03
      3.73840099e-04 8.13158636e-04 7.90052041e-02 2.84963906e-01
      3.28160495e-01 3.28160495e-01 3.24493706e-01 1.44292682e-01
      1.25099838e-01 5.03935590e-02 3.11396904e-02 7.36285746e-02
      1.08696401e-01 2.28102192e-01 2.85678178e-01 1.48794264e-01
      1.11900218e-01 9.92806777e-02 6.93773925e-02 2.33020056e-02
      6.52573034e-02 6.98679313e-02 2.85678178e-01 2.85678178e-01
      2.03915924e-01 7.27071539e-02 2.97865327e-02 2.17402950e-02
      2.14256346e-02 1.19356282e-01 2.36937940e-01 2.83755779e-01
      2.85678178e-01 2.85678178e-01 1.01813547e-01 6.80373088e-02
      5.46002612e-02 2.69993171e-02 9.98800322e-02 1.23894073e-01
      1.87392935e-01 2.85678178e-01 2.85678178e-01 1.13644615e-01
      4.79606166e-02 5.15576378e-02 9.74038616e-03 2.70717982e-02
      1.46765262e-02 4.45567369e-01 4.45567369e-01 3.68942976e-01
      6.51907697e-02 8.42184108e-03 5.08043496e-03 0. 0. 0. 0.
      1.17956074e-02 0. 0. 0. 0. 2.03161370e-02 1.50492182e-02
      9.59492568e-03 1.85936823e-01 4.45567369e-01 4.45567369e-01
      1.45830467e-01 3.79370227e-02 3.88950929e-02 0. 0. 0. 0.
      1.55286109e-02 2.03207368e-03 3.17029539e-03 1.66281068e-03
      1.98257170e-04 2.10559185e-04 1.34511967e-04 2.04451778e-03
      1.35663257e-03 9.79013555e-03 9.06429996e-05 4.43137724e-05 0.
      2.10559185e-04 5.01432735e-03 6.12156615e-02 2.72618949e-01
      3.39182347e-01 3.39182347e-01 3.39182347e-01 7.35490471e-02
      4.37056646e-03 9.12423187e-04 5.47798059e-04 5.82885172e-04
      9.74862091e-03 1.35044595e-02 4.38013263e-02 5.78565150e-03
      3.20272008e-03 6.73459319e-04 5.47798059e-04 2.25269552e-02
      5.53447604e-02 3.39182347e-01 3.39182347e-01 3.39182347e-01
      3.39182347e-01 3.11938912e-01 6.49500564e-02 1.83650982e-02
      2.23531984e-02 7.03503713e-02 1.49393186e-01 2.20542252e-01
      2.54997522e-01 2.54997522e-01 9.83042493e-02 2.41066199e-02
      1.75665077e-02 2.62443237e-02 5.56537211e-02 6.66046888e-02
      1.48339823e-01 2.54997522e-01 2.54997522e-01 1.88643813e-01
      4.34777662e-02 2.41004452e-02 4.80555519e-02 7.77874738e-02
      2.13427782e-01 2.54997522e-01 2.51550406e-01 2.54997522e-01
      1.77001894e-01 5.75963929e-02 3.35961469e-02 4.97798063e-02
      7.12728053e-02 2.54997522e-01 2.54997522e-01 2.54997522e-01
      2.17078760e-01 2.09688827e-01 6.15151264e-02 3.99305411e-02
      1.31356260e-02 3.92593723e-03 1.40727740e-02 1.59463689e-01
      3.47750634e-01 3.47750634e-01 3.29321563e-01 6.81684539e-02
      1.65278893e-02 0. 0. 3.72923241e-04 5.60004404e-03 3.66964415e-02
      1.41453249e-02 1.09522128e-02 3.25109391e-03 3.03916546e-04
      1.85098257e-02 2.50479206e-02 3.47750634e-01 3.47750634e-01
      3.47750634e-01 3.45313072e-01 3.43740076e-01 6.75105602e-02
      2.11478360e-02 0. 0. 1.08952494e-02 3.93032879e-02 7.41185248e-02
      1.84910242e-02 1.00200409e-02 2.05454300e-03 1.38143878e-04
      7.71492138e-04 3.42959072e-04 6.45703217e-03 1.22401444e-02
      6.61612973e-02 1.64368376e-02 1.14521980e-02 2.92792264e-03
      7.71492138e-04 2.75390651e-02 3.60012464e-02 3.35528791e-01
      3.35528791e-01 3.35528791e-01 3.35528791e-01 3.35528791e-01
      2.31137216e-01 9.12239179e-02 4.71472100e-04 0. 0. 0.
      1.04045123e-02 4.63525811e-03 4.55996487e-03 1.33087405e-03
      4.71472100e-04 3.45028527e-02 4.64015128e-03 2.32920814e-02
      2.26278137e-02 3.05866390e-01 3.35528791e-01 3.35528791e-01
      1.69168293e-01 1.23362184e-01 1.01817787e-01 1.26620844e-01
      2.28707999e-01 2.52215594e-01 2.31267303e-01 2.52215594e-01
      2.52215594e-01 1.52445793e-01 1.19846344e-01 1.21162951e-01
      1.70067564e-01 2.52215594e-01 2.52215594e-01 2.52215594e-01
      1.22276708e-01 1.32766172e-01 8.39837119e-02 1.01205796e-01
      1.53875902e-01 7.48557821e-02 4.96907160e-02 5.45301065e-02
      1.49603367e-01 1.95731580e-01 1.76127672e-01 1.16272755e-01
      1.50420591e-01 1.93318069e-01 1.49169952e-01 1.16129436e-01
      1.76573381e-01 2.46707484e-01 6.13823757e-02 6.56806901e-02
      5.83666712e-02 1.15358703e-01 7.64715970e-02 1.41730309e-01
      4.23084497e-01 4.23084497e-01 4.23084497e-01 1.12507895e-01
      8.93701240e-02 2.14828979e-02 2.21062656e-02 0. 0. 1.96229741e-02
      4.53057662e-02 4.88556661e-02 6.12126524e-03 1.44472776e-03 0. 0.
      1.33933455e-01 1.77392647e-01 2.00952083e-01 3.69055867e-01
      4.23084497e-01 2.39374395e-02 2.02163756e-02 8.46774224e-03
      1.67241432e-02 0. 0. 1.11684995e-03 8.48011347e-04 7.17993453e-03
      0. 0. 0. 0.</_>
    <_>
      0. 9.48513800e-04 8.87096860e-03 3.19931470e-02 6.57515004e-02
      3.35088819e-02 9.41173057e-04 0. 0. 8.55710357e-02 2.03033552e-01
      3.20226371e-01 3.20226371e-01 3.20226371e-01 3.20226371e-01
      1.38565302e-01 4.91125025e-02 4.19511646e-02 1.19954748e-04 0.
      7.66198942e-03 4.09456156e-02 7.28703290e-02 3.72072533e-02
      6.77108858e-03 5.20593394e-03 1.21632044e-03 1.20585330e-01
      5.72983809e-02 2.95460463e-01 3.20226371e-01 3.20226371e-01
      3.20226371e-01 1.47911713e-01 1.28716588e-01 2.20108345e-01
      8.80902633e-02 1.49592891e-01 2.28815898e-01 1.92474842e-01
      2.15091184e-01 2.28815898e-01 1.53349146e-01 9.04969126e-02
      5.55518307e-02 4.33168523e-02 1.06004812e-01 2.28815898e-01
      8.48082006e-02 1.90973833e-01 2.28815898e-01 1.84446320e-01
      1.31026104e-01 4.39819731e-02 8.77323076e-02 8.19859132e-02
      2.28815898e-01 2.28815898e-01 2.28815898e-01 2.28815898e-01
      1.26781419e-01 7.85095543e-02 1.42970368e-01 4.02491242e-02
      8.51233676e-02 1.77693322e-01 2.28815898e-01 2.28815898e-01
      2.28815898e-01 2.07442328e-01 1.18412755e-01 9.51743573e-02
      6.69180090e-03 1.68494284e-01 3.11709136e-01 1.40065908e-01
      3.11709136e-01 3.11709136e-01 2.76350260e-01 2.01645181e-01
      2.83058174e-02 3.34021577e-04 2.69084936e-03 6.06601406e-03
      9.70725436e-03 3.75456288e-02 6.02429919e-03 3.34419892e-03
      1.27666816e-03 5.28965727e-04 1.25903888e-02 1.05795354e-01
      1.68893099e-01 3.11709136e-01 3.11709136e-01 3.11709136e-01
      3.11709136e-01 3.11709136e-01 1.06045529e-01 2.04126336e-04
      1.22311327e-03 2.14144913e-03 2.24013557e-03 2.34236531e-02
      1.64957829e-02 1.08797662e-02 5.49122225e-03 2.04126336e-04
      5.12952043e-04 0. 2.61825253e-03 1.63916741e-02 5.08244336e-02
      2.82752514e-02 1.09139122e-02 9.51324310e-03 3.35654547e-03
      1.25174806e-01 6.51619658e-02 2.95678169e-01 3.23741108e-01
      3.23741108e-01 3.23741108e-01 1.56070516e-01 1.63489357e-01
      3.01857352e-01 2.33159997e-04 1.10043015e-03 1.62625813e-03 0.
      7.55602727e-03 8.87543487e-04 1.29549694e-03 1.18625618e-03
      8.89373827e-04 9.79585014e-03 1.13540441e-01 2.97446877e-01
      3.23741108e-01 3.23741108e-01 3.23741108e-01 9.36507434e-02
      5.21056764e-02 3.84427756e-02 4.08149362e-02 7.80477151e-02
      1.72294691e-01 2.40655065e-01 2.02297911e-01 1.26328111e-01
      6.71474189e-02 6.08155727e-02 1.05807245e-01 2.38008890e-02
      8.59062672e-02 1.21199675e-01 2.21126750e-01 2.53015757e-01
      2.53015757e-01 1.87961802e-01 1.78169489e-01 1.50962636e-01
      1.22353639e-02 1.00137807e-01 1.96896896e-01 2.24617720e-01
      2.53015757e-01 2.53015757e-01 6.62361756e-02 6.19194210e-02
      5.82774021e-02 2.65162550e-02 1.10966019e-01 2.03937531e-01
      2.53015757e-01 2.53015757e-01 2.53015757e-01 1.30067959e-01
      1.20241545e-01 1.38974324e-01 9.45850648e-03 2.84067728e-02
      2.36651320e-02 1.41616389e-01 3.75409096e-01 3.75409096e-01
      2.73849517e-01 2.44060472e-01 1.27283126e-01 0. 0. 0.
      1.78319390e-03 7.29942843e-02 2.98914332e-02 9.00821574e-03
      3.29617620e-03 0. 1.97994914e-02 3.98825929e-02 1.32088631e-01
      3.75409096e-01 3.75409096e-01 3.75409096e-01 1.57519460e-01
      1.07729688e-01 1.12144373e-01 0. 0. 0. 2.81039011e-02
      2.06576005e-01 3.31590846e-02 3.59371840e-03 7.77447829e-04 0. 0.
      3.61176045e-03 8.20649974e-03 1.18290074e-02 2.69253645e-02
      4.27372148e-03 1.66235142e-03 2.88352079e-04 0. 2.88065756e-03
      1.87343627e-01 3.25652540e-01 3.25652540e-01 3.25652540e-01
      2.53570676e-01 1.11794084e-01 4.26951498e-02 2.30235350e-03 0.
      2.71880417e-03 7.70919723e-03 1.52087240e-02 5.31774685e-02
      1.89405158e-02 1.20168757e-02 4.32528136e-03 0. 2.57178620e-02
      1.50195256e-01 3.25652540e-01 1.83221251e-01 3.25652540e-01
      3.25652540e-01 3.25652540e-01 2.75382906e-01 5.85584082e-02
      2.10932083e-02 1.23325147e-01 2.45501265e-01 1.94755659e-01
      2.45501265e-01 1.93827406e-01 5.14234714e-02 4.01764400e-02
      3.12944241e-02 3.75814363e-02 1.73610225e-01 2.45501265e-01
      2.45501265e-01 2.45501265e-01 2.45501265e-01 3.01811751e-02
      4.53856587e-02 5.32023795e-02 8.48244429e-02 1.15364887e-01
      2.45501265e-01 1.33877471e-01 2.19972849e-01 1.31142765e-01
      2.45501265e-01 1.23688683e-01 7.44539276e-02 1.08378783e-01
      2.15904266e-01 2.45501265e-01 2.45501265e-01 2.45501265e-01
      8.46761912e-02 6.21829927e-02 5.13768420e-02 6.26811609e-02
      2.57854722e-02 1.63111135e-01 3.53320688e-01 3.53320688e-01
      3.53320688e-01 3.37139428e-01 1.42108118e-02 2.40418836e-02
      3.64544988e-02 0. 5.98820043e-04 9.30988602e-03 4.59056832e-02
      1.71554953e-01 1.68761034e-02 0. 0. 0. 4.77691703e-02
      2.44089097e-01 3.53320688e-01 3.53320688e-01 3.53320688e-01
      8.68903846e-02 2.33622058e-03 6.47871336e-03 8.98571685e-03 0.
      1.48305821e-03 1.52301211e-02 2.47362796e-02 4.58377600e-02
      4.23859619e-03 0. 0. 0.</_>
    <_>
      1.88621343e-04 0. 8.33914708e-03 4.70469892e-02 2.02964455e-01
      6.96545690e-02 3.08923163e-02 2.53314935e-02 1.79128069e-02
      1.32160500e-01 6.65814131e-02 1.34829164e-01 3.49037707e-01
      3.49037707e-01 3.49037707e-01 1.84863716e-01 2.36578017e-01
      2.84753025e-01 4.14966984e-04 0. 0. 0. 3.23198661e-02
      2.14872286e-02 1.57900229e-02 1.87915135e-02 1.22421635e-02
      1.63522754e-02 1.50115751e-02 1.92200970e-02 2.15415403e-01
      3.49037707e-01 3.49037707e-01 1.65542752e-01 1.64964601e-01
      1.47244781e-01 1.30382925e-01 8.40281770e-02 8.45377073e-02
      1.95885569e-01 2.76118755e-01 1.72367752e-01 6.90638125e-02
      9.52082947e-02 1.39037102e-01 8.05512592e-02 6.23406358e-02
      1.17522024e-01 2.76118755e-01 2.76118755e-01 2.76118755e-01
      8.38115960e-02 5.77611104e-02 7.83237740e-02 2.98213307e-02
      6.36362135e-02 6.37044460e-02 2.20000714e-01 2.76118755e-01
      2.76118755e-01 1.28755257e-01 8.62688571e-02 5.84474802e-02
      2.93033961e-02 7.22751915e-02 1.38276950e-01 2.76118755e-01
      2.76118755e-01 2.76118755e-01 1.53521031e-01 5.91626391e-02
      2.87168901e-02 1.83205269e-02 1.90790631e-02 1.90420121e-01
      3.73331159e-01 3.73331159e-01 3.73331159e-01 1.44344255e-01
      3.22799906e-02 2.37034373e-02 0. 0. 2.12288694e-04 9.86596942e-03
      4.39536609e-02 8.21924210e-03 6.74111361e-04 0. 0. 1.45203024e-02
      4.00339700e-02 2.17039749e-01 3.73331159e-01 3.73331159e-01
      3.73331159e-01 2.16718465e-01 2.29525696e-02 6.98547065e-03 0. 0.
      9.64948631e-05 1.13587128e-02 4.29413095e-02 9.02338605e-03
      8.66714690e-04 0. 0. 1.86536621e-04 0. 0. 0. 1.50683168e-02
      6.15655619e-04 0. 1.69617939e-03 1.34520850e-03 5.98454056e-03
      8.26513488e-03 2.45869085e-02 2.78591275e-01 4.37769949e-01
      4.37769949e-01 2.09338531e-01 8.26103166e-02 4.13019024e-02
      8.25845404e-04 6.14285609e-03 2.36016046e-03 8.41688307e-04
      1.54101616e-02 0. 0. 0. 5.60049317e-04 3.52521017e-02
      9.62901413e-02 2.13801563e-01 4.37769949e-01 4.37769949e-01
      1.89099565e-01 5.48705347e-02 3.23637873e-02 4.27234285e-02
      5.41811138e-02 3.35510820e-02 6.56769276e-02 1.87990665e-01
      2.49995977e-01 2.49995977e-01 1.71160087e-01 9.07861069e-02
      6.59606680e-02 6.95934445e-02 4.40860838e-02 1.34499192e-01
      2.49995977e-01 2.49995977e-01 2.49995977e-01 1.47777885e-01
      9.19282213e-02 6.76595494e-02 8.62009749e-02 6.49919882e-02
      1.25185549e-01 2.49995977e-01 2.49995977e-01 9.60355029e-02
      7.40267336e-02 8.05954561e-02 1.23170428e-01 1.06159002e-01
      6.67866617e-02 9.60388854e-02 2.33608395e-01 2.49995977e-01
      2.24600673e-01 2.07182094e-01 2.49995977e-01 2.30391413e-01
      3.34714204e-02 2.19427180e-02 1.43276528e-01 3.34900409e-01
      3.34900409e-01 3.34900409e-01 9.00625885e-02 5.47349527e-02
      2.27576979e-02 0. 0. 0. 7.18258368e-03 3.11032850e-02
      7.55862473e-03 3.16577824e-03 4.42446955e-03 1.09354660e-04
      5.02644666e-02 3.08399033e-02 6.28308430e-02 2.67489731e-01
      3.34900409e-01 3.34900409e-01 3.34900409e-01 3.34900409e-01
      2.48879626e-01 0. 0. 1.29409612e-03 2.01968960e-02 1.39243051e-01
      9.87489969e-02 6.78757131e-02 4.01184261e-02 1.32481777e-03
      1.26554351e-03 1.61726214e-02 1.86752100e-02 2.10965089e-02
      3.52605507e-02 7.84610584e-03 4.27712966e-03 1.12702232e-03
      7.78060581e-04 2.32966971e-02 2.17933089e-01 3.12248319e-01
      3.12248319e-01 3.12248319e-01 6.09509982e-02 9.19753015e-02
      5.10490462e-02 1.94574445e-02 7.54818844e-04 1.42717604e-02
      2.15134230e-02 3.28580625e-02 7.67807215e-02 3.77704352e-02
      3.05974167e-02 1.83229987e-02 2.81187403e-03 1.51225450e-02
      2.05168486e-01 3.12248319e-01 3.12248319e-01 3.12248319e-01
      3.12248319e-01 3.12248319e-01 3.12248319e-01 3.37468982e-02
      8.91272351e-02 1.04450703e-01 2.21845731e-01 2.55385846e-01
      1.91877276e-01 2.93928478e-02 6.86493069e-02 5.35446070e-02
      7.51214772e-02 1.17949776e-01 7.49227330e-02 2.55385846e-01
      2.55385846e-01 1.71633065e-01 8.54841769e-02 1.33711845e-01
      1.85687006e-01 1.54177472e-01 7.39618540e-02 9.65914875e-02
      1.86425030e-01 2.53198147e-01 2.55385846e-01 2.01587439e-01
      2.04618052e-01 1.29914463e-01 5.35301268e-02 9.69882086e-02
      7.23485798e-02 2.55385846e-01 2.55385846e-01 2.55385846e-01
      2.13553265e-01 8.27129930e-02 4.38638479e-02 6.76489770e-02
      4.83641066e-02 3.47624868e-02 3.24468791e-01 3.24468791e-01
      3.24468791e-01 2.78141946e-01 2.56620318e-01 2.92926192e-01
      1.33166626e-01 1.52064022e-04 1.41685060e-03 3.30283009e-02
      6.33893609e-02 1.57013118e-01 6.41747415e-02 3.11764181e-02
      1.30266659e-02 5.74727950e-04 3.90572250e-02 4.15113196e-02
      3.24468791e-01 3.24468791e-01 3.24468791e-01 2.42058888e-01
      3.17824185e-02 2.83362512e-02 3.38302143e-02 6.58944075e-04
      3.11707123e-03 5.41376919e-02 6.03153966e-02 9.06246006e-02
      1.24179171e-02 2.13618879e-03 2.50130572e-04 6.58944075e-04</_>
    <_>
      0. 9.11497802e-04 6.30137604e-03 3.77997123e-02 5.64654768e-02
      1.32018037e-03 9.16149384e-06 0. 0. 1.96884260e-01 1.88313231e-01
      2.67074198e-01 3.08757395e-01 3.08757395e-01 1.61858499e-01
      7.43282773e-03 1.55376680e-02 8.81858543e-02 0. 4.14317183e-04
      5.57687506e-03 6.52767718e-02 1.76305786e-01 2.88912281e-02
      3.57020763e-03 0. 0. 2.11138770e-01 3.08757395e-01 3.08757395e-01
      3.08757395e-01 3.08757395e-01 3.08757395e-01 9.69891250e-02
      7.33345076e-02 2.22540095e-01 1.33110717e-01 1.39519125e-01
      1.42356619e-01 1.99292496e-01 1.93006754e-01 2.16796175e-01
      9.12193358e-02 3.18283029e-02 8.80528167e-02 7.29441196e-02
      1.20837972e-01 8.43571350e-02 2.51119822e-01 2.51119822e-01
      2.51119822e-01 2.03673691e-01 5.83956763e-02 9.68763605e-02
      1.14115492e-01 1.91184476e-01 1.58260092e-01 2.51119822e-01
      2.45749220e-01 2.35216185e-01 1.08473524e-01 6.85221553e-02
      9.91615206e-02 3.90748754e-02 8.58808607e-02 8.48725364e-02
      2.51119822e-01 2.51119822e-01 2.51119822e-01 1.96854994e-01
      6.48420528e-02 2.32915524e-02 2.70486567e-02 6.62825778e-02
      3.07088848e-02 3.76944751e-01 3.76944751e-01 3.76944751e-01
      2.35034168e-01 5.78647777e-02 7.46977106e-02 0. 0. 0.
      4.85979719e-03 6.43800423e-02 8.85995664e-03 6.87526888e-04 0. 0.
      7.45426677e-03 2.41617635e-02 4.86927740e-02 3.76944751e-01
      3.76944751e-01 3.76944751e-01 2.35798374e-01 3.50139141e-02
      6.94526418e-04 0. 0. 0. 5.50278649e-03 9.57539156e-02
      1.36080496e-02 1.89865462e-03 0. 0. 0. 0. 2.54189805e-03
      3.87434214e-02 1.48598954e-01 2.23935097e-02 3.50923208e-03
      1.35555558e-04 0. 1.53497547e-01 1.54730707e-01 1.03489973e-01
      3.07168782e-01 3.07168782e-01 2.74000585e-01 1.35912701e-01
      1.49738014e-01 1.09555520e-01 0. 0. 1.61509891e-03 2.64073666e-02
      1.45885274e-01 4.39869016e-02 1.06182592e-02 4.88305697e-03
      3.59606260e-04 2.27802292e-01 1.65014148e-01 6.73712194e-02
      3.07168782e-01 3.07168782e-01 3.07168782e-01 2.55571932e-01
      3.07168782e-01 2.17928141e-01 9.01090428e-02 1.14743933e-01
      7.41560385e-02 2.45827243e-01 2.45827243e-01 1.67783931e-01
      1.24846622e-01 1.22171231e-01 5.54767773e-02 2.37088203e-02
      4.11669202e-02 8.68922621e-02 2.45827243e-01 2.45827243e-01
      2.28767961e-01 1.85472742e-01 7.29390979e-02 1.24499230e-02
      1.58559039e-01 1.24393165e-01 8.90799761e-02 2.45827243e-01
      2.45827243e-01 2.26802483e-01 1.67473629e-01 2.08647624e-01
      1.11729212e-01 6.51143193e-02 4.78817485e-02 1.79142758e-01
      2.45827243e-01 2.45827243e-01 2.45827243e-01 1.81325108e-01
      8.07437301e-02 3.23023275e-02 3.78881348e-03 9.28268675e-03
      1.13628291e-01 3.55167598e-01 3.55167598e-01 3.55167598e-01
      2.76348412e-01 4.60285060e-02 4.36049839e-03 0. 0. 5.86196431e-04
      1.45989889e-02 9.06500444e-02 2.17217170e-02 6.16639946e-03 0. 0.
      2.59136464e-02 1.25979753e-02 2.60009974e-01 3.55167598e-01
      3.55167598e-01 3.55167598e-01 2.36020133e-01 4.41153124e-02
      1.73235536e-02 0. 0. 2.50552199e-03 3.43135558e-02 1.06278457e-01
      1.57564674e-02 3.79887037e-03 0. 0. 0. 0. 0. 5.56393014e-03
      1.30531281e-01 6.07559532e-02 1.75768696e-02 1.18252756e-02
      9.98774543e-04 2.54299223e-01 1.54918522e-01 3.98440063e-02
      2.79617161e-01 3.45247149e-01 3.45247149e-01 3.21104139e-01
      3.45247149e-01 3.45247149e-01 0. 0. 0. 0. 6.78356588e-02
      9.21745319e-03 9.81482910e-04 7.62315001e-04 6.65849657e-05
      5.92774246e-03 0. 0. 1.54573053e-01 3.45247149e-01 2.68058598e-01
      5.20727001e-02 5.84079027e-02 3.49089280e-02 1.27045617e-01
      7.50767216e-02 9.33766291e-02 2.40604773e-01 2.70326823e-01
      2.00384498e-01 1.23607531e-01 1.02873661e-01 1.17259160e-01
      1.17555171e-01 6.21199682e-02 2.19968691e-01 2.70326823e-01
      2.70326823e-01 2.70326823e-01 1.32543027e-01 2.73421444e-02
      4.95072789e-02 5.10687642e-02 2.64301989e-02 8.26535970e-02
      1.84713930e-01 2.70326823e-01 1.88459039e-01 7.53039643e-02
      6.37300536e-02 9.50171053e-02 1.14751540e-01 8.02001134e-02
      2.23997518e-01 2.70326823e-01 2.70326823e-01 1.83327928e-01
      9.03474092e-02 5.98682500e-02 1.30819976e-01 7.74560198e-02
      4.51065265e-02 2.72767693e-01 3.93447489e-01 3.93447489e-01
      3.93447489e-01 1.02946855e-01 8.63807183e-03 3.09534799e-02 0. 0.
      1.15026906e-03 1.88599527e-02 1.09363571e-01 4.10093321e-03 0. 0.
      0. 9.79896635e-02 9.28273350e-02 2.69014746e-01 3.93447489e-01
      3.93447489e-01 9.92451459e-02 4.78411503e-02 1.77084524e-02
      7.53017291e-02 0. 1.01499943e-04 6.16196892e-04 1.31608741e-02
      8.23365897e-02 7.48874736e-04 0. 0. 0.</_>
    <_>
      2.14516625e-01 1.53260455e-01 1.75517559e-01 2.55949974e-01
      3.00071776e-01 1.45641431e-01 8.38646591e-02 1.37905940e-01
      1.67091876e-01 8.18561092e-02 6.94290251e-02 1.07121937e-01
      2.93797910e-01 3.00071776e-01 1.80615574e-01 6.78018779e-02
      6.00721836e-02 7.26306215e-02 1.94959924e-01 1.06681027e-01
      1.22180961e-01 1.83657095e-01 2.38343284e-01 1.31832913e-01
      1.15917735e-01 1.20963126e-01 1.12233557e-01 5.45824170e-02
      4.29221578e-02 7.65224025e-02 1.95383787e-01 3.00071776e-01
      2.32968584e-01 8.51820782e-02 7.46170655e-02 3.99968326e-02
      2.45374769e-01 1.23018093e-01 7.92129561e-02 1.61711887e-01
      3.18869859e-01 1.52191356e-01 7.47950673e-02 6.05766624e-02
      1.93674907e-01 2.00631350e-01 9.59916636e-02 4.96433564e-02
      1.80205628e-01 3.18869859e-01 1.91611752e-01 1.05972804e-01
      8.35633203e-02 2.24695534e-01 1.39367387e-01 9.14965048e-02
      8.63017812e-02 9.58405063e-02 3.18869859e-01 1.82538539e-01
      5.99712580e-02 8.20365027e-02 1.09909967e-01 1.61046654e-01
      1.17145278e-01 7.80424029e-02 1.89726040e-01 3.18869859e-01
      1.45637393e-01 6.15940541e-02 5.70191145e-02 1.11444965e-01
      6.59137741e-02 5.54596409e-02 8.75560492e-02 2.08520785e-01
      2.99616903e-01 1.55134544e-01 7.67895728e-02 5.90208471e-02
      1.00555614e-01 2.63382077e-01 1.36220127e-01 1.76643819e-01
      1.94801405e-01 2.49053106e-01 1.79200202e-01 1.46357730e-01
      1.03297755e-01 2.25738704e-01 8.04540962e-02 4.96936850e-02
      4.08089831e-02 1.45958021e-01 2.99616903e-01 1.18930146e-01
      6.15658164e-02 5.95872812e-02 1.36871889e-01 2.99616903e-01
      1.23123072e-01 1.07315265e-01 1.11625329e-01 2.39794821e-01
      1.15632065e-01 1.02658264e-01 9.41051021e-02 2.99616903e-01
      1.16357952e-01 6.35291934e-02 7.64545798e-02 1.63384423e-01
      3.47506344e-01 1.44795075e-01 1.21197768e-01 8.48197863e-02
      7.45809153e-02 2.87672374e-02 2.41945144e-02 6.88471943e-02
      2.47781694e-01 3.73739988e-01 1.40520364e-01 6.65166825e-02
      5.15583754e-02 2.12248303e-02 4.10701856e-02 6.40090629e-02
      7.21890554e-02 2.26628870e-01 3.73739988e-01 2.46518523e-01
      1.17666930e-01 6.61868304e-02 6.26792908e-02 2.49861274e-02
      2.11026240e-02 4.36855033e-02 2.06200138e-01 3.73739988e-01
      2.58152813e-01 6.57223538e-02 3.22910212e-02 1.79729294e-02
      4.26108018e-02 6.77920803e-02 1.00525580e-01 1.91618621e-01
      4.30303156e-01 7.85054341e-02 3.31129208e-02 3.95893939e-02
      4.55073975e-02 5.79812936e-02 6.29284605e-02 6.25532642e-02
      1.43993050e-01 4.30303156e-01 1.51270166e-01 6.33733794e-02
      4.45545316e-02 5.84058128e-02 4.23784368e-02 3.45401689e-02
      2.93553285e-02 1.53505400e-01 4.30303156e-01 1.57071114e-01
      3.89201082e-02 4.03572470e-02 4.61985953e-02 4.82448265e-02
      3.97066697e-02 2.79740151e-02 1.61439806e-01 4.30303156e-01
      1.79092437e-01 5.36023788e-02 3.78320515e-02 4.65848520e-02
      5.12350313e-02 3.96668725e-02 1.52020166e-02 9.73539129e-02
      4.92042452e-01 1.37708455e-01 4.73739170e-02 3.30388881e-02
      6.80836216e-02 1.49721786e-01 7.66485855e-02 3.23482454e-02
      1.03140250e-01 3.28382820e-01 1.11488104e-01 9.10245255e-02
      4.91480790e-02 1.40602186e-01 1.87102575e-02 1.23609966e-02
      1.63679123e-02 1.26541808e-01 4.92042452e-01 1.15538612e-01
      4.71045598e-02 3.31923217e-02 2.93173213e-02 2.89451890e-02
      1.45892622e-02 4.84637432e-02 1.76544428e-01 4.32593346e-01
      8.96766037e-02 1.05740465e-01 4.28671129e-02 4.73635681e-02
      2.49158610e-02 3.86654697e-02 4.43018489e-02 2.35191882e-01
      3.52672994e-01 2.42877528e-01 9.12424847e-02 3.39430794e-02
      2.42418330e-02 1.39042055e-02 1.56364217e-02 1.89127177e-02
      1.01915464e-01 3.52672994e-01 2.80746102e-01 7.16817826e-02
      2.51783710e-02 1.12577211e-02 6.53409883e-02 7.26268366e-02
      6.34780005e-02 2.78063983e-01 3.52672994e-01 1.94872037e-01
      1.24119304e-01 7.90530741e-02 1.34658277e-01 4.90255430e-02
      6.67788684e-02 6.01829477e-02 2.07763359e-01 3.52672994e-01
      1.91707298e-01 9.20568034e-02 4.47778590e-02 7.12596700e-02
      1.70077123e-02 1.61770042e-02 1.94988418e-02 8.91140550e-02
      3.91143888e-01 1.68102413e-01 6.04245961e-02 3.71212848e-02
      2.78838482e-02 2.21618675e-02 3.16360481e-02 3.60050686e-02
      1.38555616e-01 3.91143888e-01 2.27423012e-01 6.55319765e-02
      2.39444394e-02 2.13733576e-02 3.39320712e-02 1.55241415e-02
      2.83813607e-02 1.19419917e-01 3.91143888e-01 1.69862732e-01
      1.26197845e-01 9.02842730e-02 1.07919812e-01 7.75583014e-02
      5.88938408e-02 1.09363727e-01 2.96162605e-01 3.91143888e-01
      1.84281349e-01 1.00251831e-01 9.52067152e-02 1.37411445e-01
      9.81661305e-03 1.37768583e-02 2.06213780e-02 8.66023004e-02
      4.44057673e-01 1.40160561e-01 4.39429842e-02 1.81996841e-02
      1.56404283e-02 1.79639310e-02 1.59137677e-02 2.74965111e-02
      1.26694992e-01 4.44057673e-01 9.27350223e-02 8.41121525e-02
      2.98262928e-02 2.52603740e-02 5.96937239e-02 3.96626219e-02
      7.38719404e-02 2.21133798e-01 4.44057673e-01 1.48374051e-01
      4.17579934e-02 3.84020060e-02 5.56758828e-02 5.21818362e-02
      2.07656305e-02 4.59697023e-02 1.29802048e-01 4.44057673e-01
      1.43498018e-01 7.98865780e-02 6.04262576e-02 3.60372588e-02</_>
    <_>
      3.53672132e-02 3.18731517e-01 3.18731517e-01 2.27460682e-01
      6.11071987e-03 5.50507451e-04 1.49759755e-03 5.89750591e-04
      1.45437673e-03 3.18731517e-01 3.18731517e-01 2.26526469e-01
      5.02091460e-02 2.94441935e-02 4.40494344e-03 6.04780670e-03
      1.00399135e-02 1.26460388e-01 6.59713941e-03 1.39462456e-01
      3.18731517e-01 3.18731517e-01 9.43328515e-02 2.49857991e-03
      2.70668208e-03 5.95554127e-04 6.36609911e-04 4.43072617e-02
      2.48052090e-01 3.18731517e-01 2.02219591e-01 1.66003227e-01
      2.82318294e-02 1.72120035e-02 9.63156484e-03 1.64016392e-02
      2.90124655e-01 2.47564092e-01 6.73119873e-02 1.86559595e-02
      3.11484225e-02 7.05683837e-03 2.46829726e-02 4.58012745e-02
      2.90124655e-01 1.84972987e-01 6.61790371e-02 3.69640142e-02
      1.42471017e-02 1.93599463e-02 1.96004529e-02 2.21010447e-01
      2.90124655e-01 2.90124655e-01 1.02092341e-01 2.90124655e-01
      2.90124655e-01 1.75475180e-01 1.87203780e-01 1.01028286e-01
      7.49786198e-02 3.93839441e-02 6.55297413e-02 9.33184847e-02
      2.12112278e-01 1.73527732e-01 1.90334857e-01 1.78931549e-01
      1.20549470e-01 1.93196788e-01 1.52350053e-01 8.57180282e-02
      2.32066233e-02 6.85594138e-03 3.33302096e-03 1.20391408e-02
      1.76849123e-02 2.06626877e-02 2.92356461e-01 2.92356461e-01
      2.27014005e-01 2.06497181e-02 0. 8.98401812e-03 8.42194706e-02
      5.93886971e-02 5.20930402e-02 1.91091165e-01 2.92356461e-01
      2.69804835e-01 1.61395632e-02 1.00041479e-02 1.54714491e-02
      1.23138070e-01 2.22736746e-01 7.99554810e-02 2.02754557e-01
      2.92356461e-01 9.49999839e-02 7.52918655e-03 2.27273795e-05
      4.19089198e-02 2.92356461e-01 2.92356461e-01 1.79926753e-01
      1.47670746e-01 2.92356461e-01 2.11446136e-01 0. 2.01751990e-03
      1.27300933e-01 3.10971141e-01 2.77878284e-01 1.86172232e-01
      6.56583672e-03 5.52083657e-05 0. 5.61180897e-03 5.80122173e-02
      2.42661223e-01 2.02801675e-01 3.10971141e-01 1.76834404e-01
      1.63564742e-01 8.03762861e-03 3.57915269e-04 0. 8.28775592e-05
      5.63823571e-03 1.65163606e-01 2.91024715e-01 3.10971141e-01
      1.79519296e-01 3.01151094e-03 0. 1.79258157e-02 8.68015178e-03
      2.16698330e-02 1.57336548e-01 3.10971141e-01 2.87090659e-01
      2.60235757e-01 1.78321656e-02 1.13053834e-02 2.86269747e-02
      1.44097716e-01 2.39017829e-01 1.51866913e-01 2.39017829e-01
      2.39017829e-01 2.39017829e-01 3.89056131e-02 3.98834702e-03
      3.10744084e-02 8.73234048e-02 1.14628188e-01 1.37350902e-01
      2.39017829e-01 2.20189273e-01 2.39017829e-01 5.23463637e-02
      8.22978653e-03 7.69953430e-02 1.47447899e-01 9.82595161e-02
      1.72723293e-01 2.39017829e-01 2.39017829e-01 2.39017829e-01
      5.38833290e-02 2.34279390e-02 6.82056546e-02 2.19417989e-01
      2.15175271e-01 1.15905881e-01 2.39017829e-01 2.11015582e-01
      2.39017829e-01 5.71321845e-02 1.38046378e-02 7.50119099e-03
      6.37910329e-03 2.35235970e-02 1.31772622e-01 3.47953260e-01
      1.08984783e-01 9.93207246e-02 3.13515328e-02 8.97174049e-03
      2.74322865e-05 1.08031549e-04 1.91666298e-02 3.47953260e-01
      3.47953260e-01 2.18015581e-01 1.28778741e-02 2.58523934e-02
      1.17203295e-02 7.84391258e-03 5.76300919e-02 1.59783125e-01
      3.47953260e-01 3.47953260e-01 6.60613701e-02 7.67760202e-02
      1.26440888e-02 3.70010501e-03 9.31156610e-05 8.40245484e-05
      1.20470494e-01 3.47953260e-01 3.47953260e-01 7.39911869e-02
      7.33897978e-05 0. 7.57048765e-05 6.81035046e-04 6.03730092e-04
      2.53332080e-03 1.94495753e-03 7.24236071e-02 3.27867121e-01
      3.27867121e-01 1.57431275e-01 7.33767264e-03 4.34924886e-02
      1.27077037e-02 5.75630507e-03 7.49781430e-02 1.90481097e-01
      1.50878280e-01 2.39292681e-01 2.22971767e-01 7.18700215e-02
      1.78542838e-03 6.11945055e-04 1.43894658e-03 4.59369330e-04
      6.39380421e-03 2.22351566e-01 3.27867121e-01 3.27867121e-01
      4.49324697e-02 1.69233531e-01 1.26352729e-02 5.96382283e-03
      4.63902485e-03 2.92247981e-02 5.92531711e-02 2.40879014e-01
      3.27867121e-01 3.27867121e-01 1.86382532e-01 1.82940260e-01
      6.28764778e-02 1.21797673e-01 2.28924498e-01 1.05431788e-01
      1.19547129e-01 9.53809321e-02 1.12183362e-01 1.52689785e-01
      3.22128654e-01 2.48153523e-01 9.83624682e-02 1.51199341e-01
      5.69958948e-02 4.64397967e-02 3.36748958e-02 4.07539830e-02
      3.22128654e-01 7.30593503e-02 2.31571458e-02 6.47024531e-03
      2.94217505e-02 2.65932772e-02 3.28151882e-02 2.34122157e-01
      3.22128654e-01 3.22128654e-01 3.22128654e-01 2.41567984e-01
      3.38619947e-02 3.15481015e-02 1.07581336e-02 5.49382996e-03
      8.01409129e-03 2.04304278e-01 1.44683458e-02 2.12217808e-01
      3.30393583e-01 3.30393583e-01 1.25424117e-01 1.01705184e-02
      5.34246070e-03 3.38859879e-03 3.79188126e-03 1.17094954e-04
      4.52068225e-02 3.30393583e-01 3.30393583e-01 1.42511919e-01
      2.28832534e-04 9.96275503e-06 0. 4.60584524e-05 1.86669022e-01
      3.30393583e-01 3.30393583e-01 1.66301847e-01 1.95378195e-02
      1.55946321e-03 3.33350821e-04 8.11018574e-04 1.81803573e-02
      2.02499144e-03 1.80950433e-01 3.30393583e-01 2.30337918e-01
      8.44414625e-03 1.17721802e-05 0. 0. 1.69149338e-04</_>
    <_>
      1.17170718e-03 4.20365948e-03 4.07813489e-03 1.39463563e-02
      7.67198056e-02 4.86951023e-02 2.45656651e-02 2.77735596e-03
      2.38687469e-04 3.50319669e-02 5.11076450e-02 3.96906808e-02
      1.07698381e-01 3.31164688e-01 3.31164688e-01 3.15102100e-01
      1.25503018e-01 6.40547425e-02 1.09281735e-02 1.61748126e-01
      1.46652430e-01 9.50803980e-02 3.48980129e-02 1.41202733e-02
      1.24258893e-02 1.76404894e-03 1.10060023e-03 3.31164688e-01
      3.31164688e-01 3.31164688e-01 2.66042650e-01 1.77828670e-01
      2.25803897e-01 1.40556782e-01 5.26313633e-02 2.62230843e-01
      1.84928179e-02 2.28949413e-02 2.48799864e-02 4.61183712e-02
      2.43675366e-01 2.75474638e-01 1.88307941e-01 1.05772778e-01
      4.82227802e-02 1.83727301e-03 1.82778784e-03 5.16718626e-03
      1.17725898e-02 1.99989751e-01 1.86368644e-01 6.47230968e-02
      3.52139138e-02 9.82251111e-03 2.75474638e-01 2.75474638e-01
      1.18768260e-01 8.83735716e-02 1.93867818e-01 1.89342812e-01
      1.36525333e-01 2.75474638e-01 2.75474638e-01 7.65665025e-02
      2.66745891e-02 8.86239856e-03 1.77104902e-02 2.00892046e-01
      1.90926582e-01 2.75474638e-01 2.75474638e-01 2.75474638e-01
      1.28426601e-03 0. 0. 1.91490408e-02 3.30132216e-01 2.09018901e-01
      5.29206581e-02 2.01592129e-02 1.44463056e-03 0. 0. 0. 0. 0. 0.
      6.99790107e-05 2.33858191e-05 0. 0. 0. 0. 2.46201940e-02
      4.54183251e-01 4.54183251e-01 4.54183251e-01 4.54183251e-01
      9.73168984e-02 0. 0. 0. 0. 3.76650393e-02 4.50566560e-02
      2.26747934e-02 6.35538530e-03 0. 4.66282619e-03 6.53615072e-02
      9.40534323e-02 1.32605538e-01 1.75743371e-01 1.01235779e-02
      2.12306133e-03 8.68367264e-04 1.95802641e-04 2.56957114e-01
      3.12353551e-01 2.63702184e-01 2.64736772e-01 3.01471263e-01
      5.48700318e-02 3.76406424e-02 4.29968201e-02 1.87369838e-01
      1.28563284e-03 1.62024423e-02 4.53092828e-02 1.95001453e-01
      3.12353551e-01 3.40614244e-02 6.12810580e-03 3.07499780e-03 0.
      8.74720365e-02 1.60034746e-01 2.25035965e-01 3.12353551e-01
      3.12353551e-01 2.14760616e-01 1.09208323e-01 9.99580473e-02
      1.16140679e-01 2.23481208e-01 2.10260719e-01 6.63458109e-02
      5.17666973e-02 8.08587447e-02 6.82839304e-02 7.57847354e-02
      2.05871940e-01 2.97648072e-01 4.19018008e-02 7.69978343e-03
      2.52210861e-03 1.47563638e-03 2.17472613e-01 2.25521088e-01
      2.14670673e-01 2.97648072e-01 2.17135832e-01 7.50539154e-02
      7.84726068e-02 9.67358202e-02 1.46713033e-01 2.97648072e-01
      1.91033006e-01 1.15332641e-01 1.31229669e-01 2.01883703e-01
      1.41112469e-02 5.05374512e-03 1.18582621e-02 6.31463155e-02
      2.97648072e-01 2.97648072e-01 1.36464387e-01 1.22892171e-01
      1.08432390e-01 0. 0. 0. 4.32836154e-04 4.71407622e-01
      3.81952018e-01 2.96978027e-01 2.81384051e-01 2.48270426e-02 0. 0.
      0. 0. 5.04227355e-02 1.68093294e-02 4.58584214e-03 8.07657430e-04
      0. 0. 0. 1.72910630e-03 4.76494879e-02 4.71407622e-01
      4.29512113e-01 1.35559112e-01 7.86699280e-02 1.00685991e-02 0. 0.
      0. 0. 1.50369033e-01 9.21674632e-03 1.10031362e-03 5.20012472e-05
      0. 1.76243586e-04 1.41112984e-03 1.00785978e-02 1.76426843e-01
      3.11100513e-01 1.89541019e-02 2.67485972e-03 1.00971898e-03
      2.35207248e-04 8.62805638e-03 5.01847714e-02 1.32503450e-01
      3.11100513e-01 3.11100513e-01 1.62994295e-01 4.46649753e-02
      3.02569829e-02 1.88898761e-02 7.84009695e-04 1.47998054e-03
      8.26615654e-03 1.34977609e-01 3.11100513e-01 1.35142133e-01
      7.52236918e-02 6.06711879e-02 1.97096244e-02 1.37345344e-01
      2.26459820e-02 5.54840937e-02 3.11100513e-01 3.11100513e-01
      2.83256799e-01 1.83431432e-01 2.34961048e-01 3.11100513e-01
      1.61570888e-02 4.49001566e-02 9.03396755e-02 1.74192965e-01
      3.37331772e-01 1.52100816e-01 4.98895757e-02 3.24237384e-02
      3.99877168e-02 9.42961965e-03 9.08329245e-03 2.15785448e-02
      1.07210577e-01 3.37331772e-01 1.42252311e-01 3.10165975e-02
      1.38458032e-02 2.43586786e-02 3.33012104e-01 8.49355087e-02
      8.39151666e-02 1.42804638e-01 3.14076990e-01 1.27105668e-01
      6.38437942e-02 1.00288816e-01 2.83906400e-01 2.49135748e-01
      1.65919721e-01 1.66417569e-01 2.62853533e-01 3.37331772e-01
      6.40505031e-02 1.72372218e-02 1.65653918e-02 7.70731121e-02
      4.26125334e-04 7.38934265e-04 6.79065799e-03 1.01963058e-01
      5.82883537e-01 1.24156080e-01 1.33046890e-02 2.62484886e-03 0. 0.
      0. 0. 3.49388167e-04 1.38534367e-01 1.10826222e-04 0. 0. 0.
      6.26367554e-02 1.57198668e-01 2.02628791e-01 4.28623915e-01
      5.82883537e-01 4.14009579e-02 5.14032273e-03 1.38722570e-03
      3.13081517e-04 0. 4.33539564e-04 2.45821942e-03 1.37123782e-02
      1.18705854e-01 0. 0. 0. 0.</_>
    <_>
      3.45120294e-04 5.95470425e-04 8.58048952e-05 0. 0. 0. 0. 0.
      1.29224412e-04 3.23610678e-02 4.87744017e-03 3.71821225e-04 0. 0.
      0. 0. 0. 1.71345454e-02 4.95846709e-03 7.97381923e-02
      1.73623174e-01 1.25756413e-01 2.44771652e-02 0. 0. 0.
      5.59972425e-04 4.48743194e-01 4.48743194e-01 4.48743194e-01
      3.67017061e-01 3.17216553e-02 0. 0. 4.56506060e-03 4.48743194e-01
      2.41825189e-02 9.03433422e-04 4.81739626e-05 0. 0. 0. 0. 0.
      1.91261899e-02 2.00190619e-02 0. 0. 0. 0. 0. 6.79361765e-05
      1.21508830e-03 2.65428312e-02 4.09175605e-01 3.21141958e-01
      1.26447603e-01 4.20652181e-02 1.53669517e-03 0. 1.12330006e-03
      2.24726945e-02 4.09175605e-01 4.09175605e-01 1.09220464e-02
      1.05979652e-05 0. 1.59657723e-03 4.06035222e-02 1.92425117e-01
      4.04917836e-01 4.09175605e-01 1.77552793e-02 0. 0. 0. 0. 0.
      4.64685174e-04 5.85100660e-03 3.44270244e-02 1.51714048e-04 0. 0.
      0. 0. 0. 1.07235042e-04 7.27885461e-04 4.05183702e-04
      3.63661408e-01 0. 0. 0. 3.58332060e-02 3.45045775e-01
      4.70238894e-01 4.70238894e-01 4.70238894e-01 6.57427474e-04 0. 0.
      0. 3.10290381e-02 1.35690466e-01 2.26508766e-01 8.42749774e-02
      4.45947237e-03 4.81718394e-04 1.54819293e-02 5.37719652e-02
      8.72344896e-02 1.16539411e-01 4.05321550e-03 2.63098045e-04 0.
      2.97979095e-05 2.75565714e-01 3.16759378e-01 2.99115926e-01
      3.16759378e-01 3.16759378e-01 4.94345315e-02 2.70449426e-02
      2.18552109e-02 1.50150731e-01 1.11866921e-05 3.18428897e-03
      2.13888381e-02 7.65051469e-02 3.16759378e-01 2.35305764e-02
      2.39377609e-03 0. 0. 8.94173086e-02 1.49648160e-01 1.98615640e-01
      3.16759378e-01 3.16759378e-01 2.76234448e-01 1.10032991e-01
      8.69874060e-02 7.85753950e-02 2.66092360e-01 1.93548143e-01
      1.03932731e-01 9.95363221e-02 7.69692808e-02 2.98273116e-02
      2.40540262e-02 4.10037078e-02 2.66092360e-01 2.66092360e-01
      1.72951967e-02 3.48339602e-03 1.33896237e-02 1.13065526e-01
      1.19938001e-01 1.60701051e-01 2.31550321e-01 2.66092360e-01
      1.80075645e-01 1.46078944e-01 1.24854408e-01 2.16671392e-01
      2.66092360e-01 1.41622812e-01 8.79445970e-02 9.48100761e-02
      2.02343419e-01 1.44001812e-01 5.64056970e-02 3.71731892e-02
      1.03682801e-01 2.66092360e-01 2.47310504e-01 1.73693597e-01
      1.47055581e-01 2.34806448e-01 5.67151420e-02 1.27262005e-03
      3.25565983e-04 9.29832179e-03 3.30781788e-01 2.94672012e-01
      3.35412711e-01 2.86431432e-01 2.27287948e-01 3.00754709e-05 0. 0.
      0. 1.20344304e-01 8.61227289e-02 5.98823838e-02 1.36830546e-02
      3.16842372e-04 3.14135812e-02 6.16576569e-03 7.06244493e-03
      6.43436536e-02 3.78457546e-01 3.78457546e-01 2.41994202e-01
      1.24577142e-01 8.61669853e-02 0. 0. 0. 1.95324747e-03
      3.78457546e-01 8.83310810e-02 2.37628650e-02 2.68462324e-03 0. 0.
      0. 7.23608537e-04 2.10882314e-02 3.82812738e-01 1.25065744e-02
      1.18197082e-03 0. 0. 7.56056374e-03 2.86456533e-02 1.17182203e-01
      2.41835535e-01 3.82812738e-01 2.39300460e-01 6.90149218e-02
      3.42895351e-02 7.58201582e-03 0. 0. 5.49361389e-03 4.63370867e-02
      3.82812738e-01 6.09098896e-02 1.01652434e-02 1.32321671e-04 0.
      2.77370960e-02 6.24441542e-02 1.36139855e-01 3.05298090e-01
      3.82812738e-01 3.59013766e-01 1.38153821e-01 1.49074113e-02
      4.93488312e-02 3.19016129e-02 6.06769286e-02 1.29002199e-01
      2.05044389e-01 3.06053966e-01 1.82844490e-01 6.57962114e-02
      4.57004756e-02 3.80380899e-02 3.62713747e-02 3.88348289e-02
      4.87919711e-02 1.68307692e-01 3.06053966e-01 1.69731855e-01
      6.58782721e-02 4.52211536e-02 5.38997166e-02 1.87011644e-01
      7.54845589e-02 1.03341751e-01 1.81702569e-01 3.06053966e-01
      2.73326069e-01 1.15309455e-01 3.61983366e-02 1.35166615e-01
      3.06053966e-01 8.93084928e-02 1.16733603e-01 2.33916253e-01
      3.06053966e-01 2.59307265e-01 4.82073501e-02 3.16531919e-02
      1.15969539e-01 7.82655366e-03 3.21416813e-03 7.03356881e-03
      1.18460529e-01 4.48842525e-01 1.57789707e-01 4.08814140e-02
      1.62400994e-02 1.45674869e-02 0. 0. 0. 5.74159250e-03
      4.48842525e-01 1.18108336e-02 0. 0. 0. 1.12977795e-01
      5.69617376e-02 1.17282599e-01 3.13584179e-01 4.48842525e-01
      1.72126144e-01 8.38379562e-03 3.94987920e-03 1.53280329e-02 0.
      1.01021002e-03 9.95794032e-03 6.05675802e-02 4.33496684e-01
      5.61606977e-03 0. 0. 0.</_>
    <_>
      1.62637103e-02 2.11012393e-01 3.15013677e-01 5.51233962e-02
      1.88174006e-03 0. 0. 0. 6.11139694e-04 2.98828661e-01
      3.15013677e-01 3.15013677e-01 9.34351701e-03 0. 0. 0. 0.
      1.97718386e-02 3.93247604e-02 1.72601745e-01 3.15013677e-01
      3.15013677e-01 7.26377517e-02 0. 0. 0. 3.39878513e-03
      3.15013677e-01 3.15013677e-01 3.15013677e-01 1.48417562e-01
      1.02979084e-02 0. 2.50116194e-04 1.64341845e-03 8.13087150e-02
      3.19594175e-01 2.91550130e-01 4.14934419e-02 2.65252856e-05
      6.40598300e-04 0. 0. 2.69424655e-02 1.86968759e-01 1.83300450e-01
      2.63576545e-02 1.88957085e-03 0. 8.23626411e-04 0. 5.92209846e-02
      3.19594175e-01 3.19594175e-01 3.19594175e-01 2.49252483e-01
      5.36008887e-02 7.04668928e-03 1.19635521e-03 1.94724067e-03
      1.05959596e-03 7.54476562e-02 3.19594175e-01 3.19594175e-01
      2.71588676e-02 3.22989747e-03 9.69002489e-04 1.98855363e-02
      8.09219666e-03 5.93795888e-02 2.14773446e-01 3.19594175e-01
      1.28685348e-02 4.54462097e-05 0. 0. 1.22254845e-04 1.10081099e-02
      3.13910067e-01 3.13910067e-01 2.32729301e-01 5.77141065e-04 0. 0.
      0. 2.43159686e-03 6.95181191e-02 3.13910067e-01 2.09356219e-01
      1.37265092e-02 1.99634179e-01 5.41398076e-05 1.00191850e-04
      1.65635615e-03 7.55251199e-02 1.54478982e-01 3.13910067e-01
      2.90633142e-01 3.13910067e-01 1.31543055e-02 0. 0. 8.99373845e-04
      1.43362597e-01 3.13910067e-01 3.13910067e-01 1.55645534e-01
      7.02520683e-02 3.77616063e-02 7.21840113e-02 1.41456932e-01
      2.68093795e-01 2.68093795e-01 8.08710307e-02 9.89877805e-03
      7.33923074e-03 3.49144428e-03 2.68093795e-01 2.68093795e-01
      2.04196095e-01 1.89505577e-01 1.24755450e-01 6.41848370e-02
      1.76539887e-02 6.07655011e-02 1.09316260e-01 5.29956669e-02
      3.93205434e-02 4.29580100e-02 1.31506115e-01 2.68093795e-01
      2.68093795e-01 1.34102434e-01 5.37982099e-02 3.47786471e-02
      2.68093795e-01 2.68093795e-01 1.05930723e-01 1.28319427e-01
      1.85440764e-01 1.96395859e-01 1.10296778e-01 2.22093701e-01
      2.60788530e-01 2.90099382e-01 2.50690341e-01 4.57685404e-02
      1.75835155e-02 1.04347747e-02 1.32852504e-02 5.97596448e-03
      1.09697439e-01 2.90099382e-01 2.90099382e-01 1.22616932e-01
      2.66906749e-02 6.57584472e-03 3.83544043e-02 1.19489394e-02
      2.22344808e-02 1.08907007e-01 2.90099382e-01 2.90099382e-01
      2.90099382e-01 6.43006936e-02 1.55734299e-02 1.42137529e-02
      2.14504972e-02 1.70827452e-02 1.93568885e-01 2.90099382e-01
      2.90099382e-01 2.77812749e-01 7.73747265e-02 7.51611358e-03
      2.98312046e-02 7.21164234e-03 1.07035823e-02 7.23790154e-02
      2.90099382e-01 2.89171755e-01 8.22048709e-02 6.79965913e-02
      6.17526472e-02 2.20811620e-01 1.30175352e-01 1.36740863e-01
      1.29497468e-01 2.89171755e-01 3.65843102e-02 2.43871305e-02
      3.66438180e-02 1.22559190e-01 2.89171755e-01 2.89171755e-01
      1.47188663e-01 5.04637361e-02 6.46208748e-02 2.89171755e-01
      1.70462593e-01 1.66865066e-01 1.45558849e-01 1.78509280e-01
      3.75877097e-02 3.88521999e-02 3.87275964e-02 2.89171755e-01
      7.13795796e-02 5.55027947e-02 1.82409897e-01 2.89171755e-01
      2.89171755e-01 8.97293836e-02 2.19544228e-02 1.25739807e-02
      2.41182111e-02 4.34245281e-02 1.15320040e-02 1.44222984e-04
      6.88287150e-03 1.02201961e-01 2.94214278e-01 2.94214278e-01
      1.60427406e-01 4.85186726e-02 2.80635595e-01 1.49348959e-01
      2.16334499e-03 1.07372683e-02 5.84268309e-02 1.45044222e-01
      2.94214278e-01 2.94214278e-01 2.82519430e-01 1.89939677e-03
      2.10666694e-05 0. 0. 1.47669390e-03 4.76028547e-02 2.94214278e-01
      2.34342277e-01 2.13643201e-02 2.84338426e-02 3.16000020e-04 0. 0.
      0. 7.62219913e-03 2.94214278e-01 2.94214278e-01 2.94214278e-01
      2.87427515e-01 2.51571715e-01 4.37755957e-02 1.99706550e-03
      5.34764584e-03 1.05212498e-02 4.41049598e-02 2.38674924e-01
      2.87427515e-01 2.87427515e-01 2.87427515e-01 1.19396925e-01
      2.24131695e-03 0. 0. 1.39985024e-03 4.28802669e-02 2.15240926e-01
      2.77738690e-01 3.71500775e-02 1.11309244e-04 0. 0. 0.
      4.69728075e-02 2.87427515e-01 2.87427515e-01 2.87427515e-01
      2.87427515e-01 7.46741667e-02 4.11548390e-05 0. 0. 0.
      3.22112292e-02 2.49365672e-01 2.58057952e-01 2.95605868e-01
      3.19638342e-01 1.17124133e-01 9.88393184e-03 0. 0. 0.
      9.35099795e-02 3.62624712e-02 1.53388053e-01 3.19638342e-01
      3.19638342e-01 7.86938518e-02 0. 0. 0. 7.71720847e-03
      3.19638342e-01 3.19638342e-01 3.19638342e-01 1.02872476e-02 0. 0.
      0. 0. 1.46937687e-02 1.88522972e-02 2.62160480e-01 3.19638342e-01
      6.76875859e-02 2.57326150e-03 0. 0. 0. 4.37048147e-04</_>
    <_>
      5.85455200e-05 0. 0. 0. 3.43913166e-03 0. 0. 0. 5.85455200e-05
      3.71951982e-02 2.08263341e-02 2.69168187e-02 1.45899854e-03
      1.32105008e-01 6.10461868e-02 1.85815636e-02 8.79018009e-03
      2.78264750e-02 6.03783503e-03 3.00818868e-02 7.21294209e-02
      8.80009830e-02 2.99499128e-02 0. 0. 0. 8.78182764e-04
      4.31001186e-01 4.31001186e-01 4.31001186e-01 4.31001186e-01
      1.50074393e-01 6.02719970e-02 3.02705206e-02 9.80933942e-03
      4.31001186e-01 3.65337878e-02 1.21446168e-02 1.73181985e-02
      2.16430495e-03 4.34521213e-02 3.37241590e-02 1.70513596e-02
      2.18514483e-02 4.02751714e-02 2.65954249e-02 5.03296638e-03
      1.18300281e-02 4.50101169e-03 5.86154424e-02 1.40322931e-02
      3.02596372e-02 3.91919464e-02 3.80966738e-02 4.04533207e-01
      2.89539456e-01 1.57244474e-01 7.68102780e-02 4.24238630e-02
      3.40895280e-02 2.34187637e-02 4.32784483e-02 4.04533207e-01
      4.04533207e-01 3.54682766e-02 1.70531310e-02 8.11854377e-03
      7.70391077e-02 8.01733956e-02 1.85047626e-01 3.97085607e-01
      4.04533207e-01 1.23280287e-02 2.03248556e-03 9.40942951e-03
      6.80628652e-03 1.63190618e-01 9.73126851e-03 4.62394543e-02
      4.67760675e-02 2.19447445e-02 0. 0. 0. 0. 3.97634460e-03 0. 0.
      1.30087385e-04 2.69555057e-05 2.71475315e-01 2.04043998e-03
      1.03839412e-02 8.75093974e-03 2.60402441e-01 4.47391510e-01
      4.47391510e-01 4.47391510e-01 4.47391510e-01 0. 0. 0. 0.
      3.96247879e-02 1.01960719e-01 8.46200287e-02 4.71166335e-02
      3.24384845e-03 6.03402965e-04 4.60369838e-03 1.71018168e-02
      4.36294787e-02 6.99124187e-02 7.68577971e-04 0. 0. 5.64621623e-05
      2.77646214e-01 2.07439929e-01 2.29733244e-01 3.06375563e-01
      3.85146528e-01 9.38749090e-02 7.40504474e-04 2.04892317e-03
      1.37146398e-01 3.64627231e-05 9.30463895e-04 6.72272174e-03
      3.69544029e-02 2.68014729e-01 2.95293587e-03 0. 0. 0.
      9.74163935e-02 8.45876336e-02 1.34650022e-01 3.68274361e-01
      3.85146528e-01 3.85146528e-01 5.09445043e-03 2.41413875e-03
      7.71918669e-02 2.94129223e-01 1.01730086e-01 8.19309354e-02
      9.57033485e-02 1.13237664e-01 6.78225011e-02 1.35395946e-02
      2.96129212e-02 2.94129223e-01 1.79390773e-01 1.13893664e-02
      5.30906441e-03 1.07200732e-02 1.26120031e-01 1.52214840e-01
      1.23344071e-01 1.62794277e-01 2.94129223e-01 1.25571832e-01
      4.77076471e-02 5.94428442e-02 1.83860093e-01 2.94129223e-01
      2.94129223e-01 2.99962573e-02 3.27824056e-02 2.38110080e-01
      8.02264586e-02 7.62522034e-03 9.37730260e-03 9.95330960e-02
      2.94129223e-01 2.94129223e-01 1.22929931e-01 1.06459253e-01
      2.76659518e-01 4.59237620e-02 1.44681890e-05 9.64979408e-05
      2.77972082e-03 3.70996296e-01 3.44469309e-01 2.40918875e-01
      2.38172486e-01 2.46971428e-01 0. 0. 0. 1.84845194e-05
      7.67556578e-02 4.62101512e-02 1.79166403e-02 6.38142554e-03
      2.83460249e-04 1.88642703e-02 4.59485484e-04 2.18396293e-04
      6.47232234e-02 4.43469584e-01 4.43469584e-01 1.72656894e-01
      1.12877354e-01 1.12887107e-01 0. 0. 0. 5.90341049e-04
      3.13218504e-01 4.08686772e-02 7.43552856e-03 1.43745053e-03
      1.73949975e-05 0. 0. 0. 2.78936885e-03 2.59963304e-01
      2.25769170e-02 3.43780243e-03 1.74778790e-04 0. 3.03539401e-03 0.
      2.36367411e-03 1.08509667e-01 3.97979468e-01 3.97979468e-01
      9.71907899e-02 3.42870168e-02 1.88310333e-02 8.85926347e-05 0. 0.
      2.94940273e-05 1.15097031e-01 4.94869277e-02 2.22320147e-02
      5.76202944e-03 4.10959939e-04 1.92280300e-02 0. 0. 7.83400331e-03
      3.97979468e-01 3.97979468e-01 3.49887997e-01 3.08247238e-01
      1.93661526e-01 3.54248844e-02 1.11491559e-02 1.01789245e-02
      1.11344725e-01 2.89554477e-01 2.89554477e-01 7.07501695e-02
      3.68996002e-02 5.77390864e-02 5.61728403e-02 4.12584543e-02
      5.18403500e-02 2.05893353e-01 2.89554477e-01 1.53303117e-01
      3.74679938e-02 2.39744298e-02 5.59771471e-02 2.02663958e-01
      4.32961807e-02 1.51288677e-02 3.08035500e-02 1.97360173e-01
      2.43325830e-01 1.59831658e-01 1.93598658e-01 2.89554477e-01
      2.89554477e-01 2.44915217e-01 1.58866093e-01 2.09555343e-01
      2.89554477e-01 5.98617904e-02 3.27958278e-02 5.38726822e-02
      2.23420188e-01 2.66872887e-02 4.08042595e-02 7.45494366e-02
      2.74956673e-01 4.40988064e-01 8.64939168e-02 9.75838862e-03
      5.09618968e-03 1.26070473e-02 0. 1.79193958e-04 2.83939368e-03
      2.18827575e-02 2.78685540e-01 3.00652650e-03 0. 0. 0.
      2.11059272e-01 3.13870043e-01 2.92656243e-01 4.33519244e-01
      4.40988064e-01 5.77722304e-03 4.70053528e-05 6.83194434e-04
      3.17957103e-02 3.82095663e-04 5.68333454e-03 2.01656111e-02
      5.28025851e-02 1.27577722e-01 5.04838717e-05 0. 0. 8.64802714e-05</_>
    <_>
      1.54350814e-03 4.66793496e-03 9.18474235e-03 3.23841721e-02
      1.54419571e-01 0. 0. 0. 2.31311074e-04 2.85735369e-01
      1.67137235e-01 1.68096006e-01 2.69777745e-01 4.92123753e-01
      5.52920662e-02 2.77847778e-02 3.45341638e-02 2.74264485e-01 0.
      2.67040217e-04 1.39615580e-03 9.68258362e-03 3.30404699e-01 0. 0.
      0. 0. 1.19278945e-01 7.97734037e-02 6.90073818e-02 1.56084761e-01
      4.92123753e-01 1.11711115e-01 7.55318776e-02 5.96468225e-02
      1.18873052e-01 2.69415319e-01 1.41235843e-01 7.32008964e-02
      8.52121711e-02 2.01563999e-01 4.86363545e-02 3.71945985e-02
      8.19533840e-02 2.69415319e-01 2.69415319e-01 1.01574324e-01
      4.15441431e-02 5.04040718e-02 2.50690460e-01 1.04967751e-01
      9.23077017e-02 1.54909402e-01 2.69415319e-01 2.04035595e-01
      1.24987401e-01 6.22659251e-02 9.41880569e-02 2.69415319e-01
      9.08424482e-02 9.30287093e-02 1.35706574e-01 2.49725059e-01
      1.98831260e-01 1.30120993e-01 5.74842170e-02 9.43568796e-02
      2.69415319e-01 1.22353166e-01 9.38076451e-02 1.78219780e-01
      2.55504251e-01 2.30015233e-01 4.33590375e-02 2.65909284e-02
      4.45140265e-02 5.03129959e-01 2.78775990e-01 1.72367036e-01
      1.74514994e-01 2.25499377e-01 2.43245071e-04 0. 0. 0.
      1.68084577e-01 3.43896188e-02 9.53921955e-03 4.77212481e-03
      1.57678849e-03 7.67598227e-02 6.80472329e-02 3.32297832e-02
      7.89175779e-02 5.03129959e-01 1.95271790e-01 7.12196529e-02
      1.14231683e-01 1.01418346e-01 0. 0. 0. 0. 3.58382583e-01
      1.01911724e-02 1.42689887e-03 2.71384080e-04 0. 0. 0. 0. 0.
      2.84968585e-01 0. 0. 0. 0. 3.65722366e-02 4.77159210e-02
      4.16719466e-02 1.14228874e-01 5.93747079e-01 1.17399730e-01
      7.00532272e-02 2.80409846e-02 5.51727824e-02 0. 0. 0. 0.
      3.25633466e-01 0. 0. 0. 0. 1.07762022e-02 3.17447409e-02
      4.48524244e-02 1.81793824e-01 5.93747079e-01 1.40044540e-01
      5.22964112e-02 1.21428315e-02 4.64447327e-02 5.81626594e-02
      5.49995564e-02 6.94372877e-02 1.69525176e-01 3.43223929e-01
      1.18336543e-01 9.16760266e-02 6.40116110e-02 1.15010664e-01
      5.81452772e-02 4.92400639e-02 6.57493472e-02 1.71120822e-01
      3.43223929e-01 1.58590004e-01 1.01333812e-01 9.68611836e-02
      1.39513239e-01 2.59009004e-02 3.97234932e-02 5.95363006e-02
      2.78314173e-01 3.43223929e-01 2.20185712e-01 8.66670310e-02
      2.02463008e-02 6.66135773e-02 3.87046002e-02 3.46463397e-02
      5.53641319e-02 3.35548282e-01 3.43223929e-01 2.53615171e-01
      9.90827233e-02 3.60531323e-02 6.40035495e-02 2.13348344e-02
      2.27666534e-02 2.47864965e-02 7.10268766e-02 6.07169747e-01
      1.46617278e-01 5.12919389e-02 5.95527217e-02 6.30995035e-02 0. 0.
      0. 9.94193688e-05 2.55030215e-01 2.62865331e-04 0. 0. 0.
      2.05870960e-02 1.31146973e-02 2.46031787e-02 2.01422200e-01
      6.07169747e-01 1.42365932e-01 4.74902466e-02 2.50634551e-02
      2.60591488e-02 0. 0. 0. 4.30817192e-04 2.96134830e-01
      3.37969715e-04 0. 0. 0. 0. 0. 0. 0. 3.13901305e-01 1.18853487e-02
      1.96020654e-03 3.99678363e-04 0. 3.65078226e-02 6.61032461e-03
      3.74448113e-02 1.45128861e-01 5.10878503e-01 2.18447194e-01
      5.41029945e-02 1.87779889e-02 5.03261238e-02 3.65135871e-04 0. 0.
      0. 1.72221184e-01 4.06202227e-02 1.26005076e-02 6.97735371e-03
      2.31100642e-03 1.77309364e-01 5.09934537e-02 9.46452767e-02
      1.17933281e-01 5.10878503e-01 3.62802982e-01 1.66785866e-01
      1.13988101e-01 1.89703226e-01 2.51380838e-02 1.08338343e-02
      2.52303369e-02 1.69488117e-01 3.14564675e-01 2.43702605e-01
      6.99889883e-02 4.66389321e-02 5.71057312e-02 3.72174568e-02
      2.99178977e-02 3.03727761e-02 2.40926534e-01 3.14564675e-01
      2.58320063e-01 6.86968118e-02 6.47336245e-02 7.88096711e-02
      8.07605311e-02 3.76046225e-02 6.44180179e-02 8.97224769e-02
      3.04547846e-01 2.05534920e-01 1.07721224e-01 1.50673479e-01
      1.79625303e-01 1.26970783e-01 9.55362394e-02 8.21500048e-02
      1.62092730e-01 3.14564675e-01 1.79268152e-01 8.64462480e-02
      1.96300909e-01 3.14564675e-01 3.68235335e-02 3.64745446e-02
      4.60073724e-02 2.58015901e-01 5.04235983e-01 1.16572671e-01
      2.29374208e-02 3.23649943e-02 5.26025295e-02 0. 2.91708828e-04
      1.37341802e-03 1.01962676e-02 2.72609264e-01 5.15832908e-05 0. 0.
      0. 1.90706879e-01 1.65738449e-01 1.54533833e-01 3.45758587e-01
      5.04235983e-01 7.52152652e-02 2.54886672e-02 9.80747789e-02
      2.74623603e-01 1.82214030e-03 5.17814839e-03 9.65558458e-03
      3.48944478e-02 1.50918424e-01 0. 0. 0. 2.96276121e-04</_>
    <_>
      5.20706410e-03 1.30009711e-01 3.12296730e-02 2.59287423e-03
      1.54291120e-04 0. 0. 0. 6.31669769e-04 6.45468235e-02
      4.15240854e-01 6.92959353e-02 7.08764652e-04 1.02860740e-05 0. 0.
      0. 2.84300302e-03 5.31554893e-02 4.15240854e-01 3.36399674e-01
      2.56300360e-01 2.08653569e-01 0. 5.09430328e-03 3.52237672e-02
      3.38904038e-02 1.60690740e-01 4.15240854e-01 3.65130514e-01
      1.28792480e-01 9.82621983e-02 1.09167779e-02 7.70905092e-02
      1.50651485e-01 9.95671824e-02 1.28161266e-01 3.52834433e-01
      5.74829318e-02 0. 0. 0. 0. 5.02777146e-03 2.12478768e-02
      2.55010754e-01 3.52834433e-01 3.84706222e-02 3.80444719e-04
      2.09896336e-03 2.41240533e-03 1.11899516e-02 3.52834433e-01
      2.23975644e-01 1.93461627e-01 3.52834433e-01 9.22526121e-02
      5.37008606e-03 2.56966464e-02 1.91354398e-02 5.46645075e-02
      5.70919961e-02 4.84902561e-02 2.80144036e-01 3.52834433e-01
      3.41576226e-02 1.50461709e-02 9.12248716e-02 4.88657095e-02
      6.10456318e-02 2.61321217e-01 1.37132451e-01 1.02319144e-01
      7.56105706e-02 3.12063238e-03 1.28414365e-03 6.05110675e-02
      7.51830116e-02 1.18840322e-01 3.53309274e-01 2.13260785e-01
      1.99999078e-03 3.00986838e-04 0. 5.83701651e-04 1.31779492e-01
      1.30763784e-01 1.43441767e-01 3.37077200e-01 3.67997065e-02
      1.00879945e-01 5.75820208e-02 2.19755364e-03 2.44096983e-02
      3.53309274e-01 2.00884342e-01 1.79816738e-01 3.53309274e-01
      1.05727173e-01 1.64652546e-03 1.30427629e-03 3.55563934e-05
      7.76617555e-03 3.53309274e-01 2.63386130e-01 1.63766637e-01
      2.18169987e-01 1.45160956e-02 2.46351622e-02 1.44584417e-01
      1.32656083e-01 1.94042340e-01 2.89326847e-01 4.02713344e-02
      1.35028977e-02 4.14206348e-02 2.59052757e-02 5.12819216e-02
      2.89326847e-01 1.31654695e-01 1.15227103e-01 2.82702655e-01
      5.03783375e-02 1.91271529e-01 2.46513009e-01 6.96175992e-02
      3.06260516e-03 7.85806216e-03 1.85681358e-02 6.28327280e-02
      2.89326847e-01 2.58765191e-01 2.10708544e-01 2.02592447e-01
      1.11705568e-02 6.13869866e-03 1.55901611e-02 2.63085384e-02
      4.67648841e-02 2.89326847e-01 1.83237419e-01 2.89326847e-01
      2.89326847e-01 4.86994758e-02 1.04194380e-01 2.76959836e-01
      5.94831333e-02 2.51856912e-02 7.45411813e-02 5.52271791e-02
      2.87144691e-01 2.98334301e-01 6.03631139e-02 1.66837886e-01
      1.87065706e-01 3.33507285e-02 8.72938111e-02 2.37977371e-01
      7.68261328e-02 1.41142264e-01 2.14776590e-01 1.06597424e-01
      2.83016916e-02 5.88490553e-02 3.00400835e-02 2.71995477e-02
      7.33630061e-02 6.37108758e-02 2.98334301e-01 2.98334301e-01
      1.05025239e-01 6.33168817e-02 1.21912718e-01 3.83127593e-02
      1.29503027e-01 2.98334301e-01 1.14563964e-01 2.27350339e-01
      2.98334301e-01 1.60477847e-01 6.08121119e-02 3.88357155e-02
      6.11023512e-03 8.45212862e-02 4.69155043e-01 9.64837447e-02
      6.27750233e-02 6.37250841e-02 5.05626090e-02 5.92981116e-04
      3.96833551e-04 1.38164411e-04 1.36348335e-02 4.69155043e-01
      6.10748194e-02 1.68670788e-02 6.25149719e-03 4.19425400e-04
      2.69572586e-02 7.68598989e-02 4.33991477e-02 1.67687237e-01
      4.69155043e-01 7.45342895e-02 5.54427803e-02 1.47091046e-01
      6.02057837e-02 7.86862729e-05 1.17774690e-02 2.41666809e-02
      8.44527483e-02 4.69155043e-01 3.30557977e-03 8.16011336e-04
      1.55193498e-04 0. 4.46636521e-04 3.03282723e-05 4.78463131e-04
      6.42863917e-04 1.85211614e-01 2.11847275e-01 3.16423953e-01
      4.30931419e-01 8.98551382e-03 1.47643196e-03 2.31303799e-04
      1.73854234e-03 1.09686633e-03 9.28619429e-02 1.24915197e-01
      4.30931419e-01 4.30931419e-01 1.08211152e-01 5.11612103e-04 0. 0.
      0. 4.88674734e-04 3.31043615e-03 3.91254239e-02 1.40849426e-01
      7.55580841e-03 1.46210042e-03 3.79803751e-05 1.26546947e-04
      2.63777129e-05 5.59852124e-05 1.10486546e-03 8.50257874e-02
      4.30931419e-01 9.42632854e-02 1.50121953e-02 7.33955717e-03
      1.69875380e-02 1.05098281e-02 3.59163471e-02 2.41589658e-02
      1.45783857e-01 3.65430355e-01 1.40262768e-01 5.36137521e-02
      1.55877262e-01 1.22565880e-01 8.60950276e-02 2.20852971e-01
      8.74538347e-02 1.01278588e-01 3.65430355e-01 1.28892720e-01
      3.76020931e-02 1.18857576e-02 1.50618590e-02 7.29707954e-03
      1.47042656e-02 4.33793571e-03 4.75326106e-02 3.65430355e-01
      1.68435037e-01 1.84997067e-01 3.38813275e-01 1.78891420e-01
      6.11289814e-02 8.47659931e-02 1.41921183e-02 2.58198380e-02
      3.65430355e-01 2.45562434e-01 4.59694341e-02 3.22721332e-01
      2.61795729e-01 2.23984748e-01 3.22721332e-01 6.69552088e-02
      3.58246341e-02 1.06127672e-01 4.52832095e-02 9.87879373e-03
      2.15181068e-01 1.44469306e-01 2.11392164e-01 3.22721332e-01
      4.75918816e-04 3.09025490e-04 1.03271152e-04 3.33435019e-04
      1.73171371e-01 3.22721332e-01 3.22721332e-01 1.23787254e-01
      1.20265149e-01 9.14892554e-03 2.00783997e-03 8.29116255e-02
      1.06471211e-01 2.91801598e-02 3.22721332e-01 1.33461952e-01
      1.09965593e-01 1.05779149e-01 3.17279191e-05 0. 0. 2.00913684e-03</_>
    <_>
      4.11141012e-03 5.04375845e-02 1.56021014e-01 6.60619512e-02
      4.75854240e-02 0. 8.38110747e-04 7.80158211e-04 3.38902650e-03
      4.09735776e-02 3.20450157e-01 3.20450157e-01 9.46107283e-02
      5.62424511e-02 2.94809174e-02 2.42970735e-02 2.04872768e-02
      2.31518745e-02 1.42529324e-01 1.27934530e-01 2.23051295e-01
      3.02430183e-01 3.20450157e-01 0. 1.01263111e-03 7.26489257e-03
      5.07220179e-02 7.82242641e-02 3.20450157e-01 3.20450157e-01
      3.20450157e-01 3.20450157e-01 9.00030881e-02 9.84343514e-02
      1.45806074e-01 5.03397733e-02 1.05344899e-01 2.04725981e-01
      2.66085565e-01 2.53811106e-02 8.91977698e-02 1.10325396e-01
      6.62168935e-02 4.35584337e-02 1.19285561e-01 2.66085565e-01
      6.29223064e-02 3.43582854e-02 1.74042881e-02 1.16088465e-01
      1.17696717e-01 8.91223475e-02 1.02470323e-01 2.66085565e-01
      1.39076918e-01 1.68658987e-01 2.16244206e-01 1.42741919e-01
      1.67086095e-01 1.75022349e-01 1.97020501e-01 1.54452860e-01
      1.61446095e-01 2.66085565e-01 1.53482363e-01 1.20724969e-01
      1.17497988e-01 1.04869477e-01 1.76278561e-01 2.66085565e-01
      2.66085565e-01 2.66085565e-01 1.84160292e-01 6.34509884e-03
      2.55148881e-03 4.97311261e-03 2.32681669e-02 2.08321810e-02
      1.71309412e-01 1.82404622e-01 3.49648058e-01 9.90839396e-03 0.
      5.87582290e-05 4.99756075e-04 7.06360806e-05 2.72536557e-03
      1.66084766e-01 1.04507364e-01 6.44894689e-02 2.79290020e-01
      8.11635032e-02 8.39858800e-02 7.12863430e-02 3.20199430e-02
      8.87341425e-02 3.49648058e-01 3.49648058e-01 3.49648058e-01
      4.73063812e-02 2.52756067e-02 2.54970528e-02 1.55911557e-02
      2.97462605e-02 9.04938653e-02 3.49648058e-01 3.47348690e-01
      7.59414509e-02 2.72436351e-01 1.50666580e-01 9.73819792e-02
      1.33202732e-01 1.91697180e-01 4.81050871e-02 7.06074759e-02
      1.16570154e-02 8.67495090e-02 2.07941964e-01 1.65190086e-01
      1.36183113e-01 2.28036657e-01 2.72436351e-01 7.04828873e-02
      1.29415840e-01 1.46497279e-01 5.36216944e-02 2.72436351e-01
      1.27746165e-01 7.45124444e-02 5.44794165e-02 7.05450773e-02
      1.17847383e-01 2.72436351e-01 2.01610491e-01 7.97179714e-02
      2.72436351e-01 1.48615316e-01 7.76562467e-02 7.02232867e-02
      8.01095217e-02 6.33523464e-02 2.72436351e-01 2.72436351e-01
      2.34049469e-01 6.32186458e-02 6.86456338e-02 1.27715558e-01
      1.15322277e-01 1.34174839e-01 1.22921102e-01 2.35915780e-01
      2.35915780e-01 6.54047504e-02 1.14982195e-01 1.25110462e-01
      2.35915780e-01 1.42229259e-01 1.25126511e-01 1.27074316e-01
      2.35915780e-01 2.35915780e-01 1.45046443e-01 1.55905694e-01
      9.40725058e-02 1.53118879e-01 6.63112029e-02 6.83337897e-02
      6.74343333e-02 2.35915780e-01 2.35915780e-01 2.35915780e-01
      1.01380967e-01 1.37939230e-01 2.35915780e-01 2.15807915e-01
      2.35915780e-01 9.62596461e-02 1.88331708e-01 2.35915780e-01
      1.30150840e-01 1.39424533e-01 1.42848954e-01 1.72215059e-01
      1.24456160e-01 1.86196148e-01 9.59984884e-02 2.85407543e-01
      1.41053706e-01 1.04412049e-01 2.27161258e-01 1.16360180e-01
      8.42533857e-02 7.79843330e-02 1.40898556e-01 1.32705465e-01
      2.85407543e-01 1.19510308e-01 4.87271510e-02 1.16856784e-01
      1.46048442e-01 2.85407543e-01 2.85407543e-01 2.85407543e-01
      9.16641727e-02 7.95236379e-02 6.01691790e-02 5.47304340e-02
      2.68220872e-01 1.23123758e-01 1.17778994e-01 2.14535967e-01
      2.85407543e-01 6.89386055e-02 6.04030937e-02 1.06411446e-02
      6.66639283e-02 5.37024364e-02 1.24159632e-02 1.06591787e-02
      6.42150873e-03 1.81405321e-02 4.40778956e-02 3.40101957e-01
      3.40101957e-01 1.00492880e-01 3.40101957e-01 3.25182192e-02
      1.86445620e-02 1.33909006e-02 5.02123348e-02 4.35527563e-02
      3.40101957e-01 3.40101957e-01 3.40101957e-01 1.28307734e-02 0. 0.
      3.68671826e-05 2.44442344e-04 4.20479832e-04 1.33946061e-01
      1.20033316e-01 8.26163366e-02 2.14000583e-01 9.56233940e-04 0.
      7.00425066e-04 8.70577022e-02 5.41946068e-02 1.45326868e-01
      2.20401019e-01 3.40101957e-01 2.54435420e-01 4.88308668e-02
      5.48576973e-02 1.45794759e-02 8.51370543e-02 1.05681352e-01
      1.51370153e-01 2.63676614e-01 2.65870988e-01 8.84850696e-02
      1.92506075e-01 2.65870988e-01 1.13070384e-01 1.79390416e-01
      1.23420753e-01 1.28962055e-01 1.53651014e-01 1.73486933e-01
      1.78992569e-01 6.80207089e-02 4.50128615e-02 7.20050943e-04
      2.36470327e-01 2.12534502e-01 1.12376928e-01 1.16543464e-01
      2.65870988e-01 1.12768836e-01 2.65870988e-01 2.65870988e-01
      1.76203325e-02 1.87555119e-01 2.02489078e-01 1.09151579e-01
      7.30455443e-02 1.21801108e-01 3.67271192e-02 2.86769241e-01
      3.42566341e-01 3.42566341e-01 3.42566341e-01 4.35289294e-02
      5.17824553e-02 4.21724431e-02 4.52302359e-02 5.11639193e-02
      6.46771714e-02 2.13684887e-01 2.83102542e-01 3.42566341e-01
      5.20659704e-03 9.59363766e-04 2.02224054e-03 1.96475778e-02
      3.77888978e-02 3.42566341e-01 3.42566341e-01 1.14360973e-01
      6.06245510e-02 2.80330237e-02 2.10936032e-02 9.95676592e-03
      2.05399506e-02 2.63737777e-04 5.39328530e-02 1.87566653e-01
      8.51467326e-02 4.66921963e-02 0. 0. 1.02658145e-04 3.16958001e-04</_>
    <_>
      3.23782233e-03 0. 0. 4.44977917e-03 7.32576624e-02 4.01999336e-03
      1.40694855e-03 4.70178551e-04 3.23782233e-03 8.41278862e-03
      7.32712448e-04 8.69582314e-03 2.90480196e-01 5.83816469e-01
      3.14589262e-01 2.86229094e-03 2.77435649e-02 3.40696946e-02
      1.13636488e-03 1.21623663e-04 3.63944418e-04 3.80615727e-03
      8.23528096e-02 2.61668162e-03 5.08357829e-04 1.69884297e-04
      1.13636488e-03 8.97871889e-03 6.47166837e-03 1.02360193e-02
      2.19223380e-01 5.83816469e-01 2.56395161e-01 1.08738932e-04
      2.61404589e-02 1.07725412e-02 6.92019379e-03 1.04506745e-03
      1.60869192e-02 2.15478584e-01 3.52116913e-01 3.03567976e-01
      6.29660208e-03 2.69264840e-02 3.26352976e-02 3.12467222e-03
      1.68014388e-03 1.95128322e-02 1.39224544e-01 3.52116913e-01
      3.42697591e-01 4.06569690e-02 1.22035407e-02 1.48133542e-02
      8.73266254e-03 9.32162628e-03 3.22342217e-02 2.60614127e-01
      3.52116913e-01 1.79212794e-01 1.72943785e-03 2.61663124e-02
      1.05305528e-02 3.96939274e-03 1.53018748e-02 9.17416066e-02
      3.04445416e-01 3.52116913e-01 1.30003750e-01 1.08826207e-02
      1.18924202e-02 4.78661526e-03 0. 4.82589426e-03 3.39346826e-02
      1.95756331e-01 4.19742197e-01 4.19742197e-01 1.95624590e-01 0. 0.
      0. 0. 0. 1.31057028e-03 4.23932597e-02 8.89859814e-03
      6.36123994e-04 0. 0. 0. 4.46953923e-02 3.40302199e-01
      4.19742197e-01 4.19742197e-01 2.95820504e-01 5.03519885e-02 0. 0.
      0. 4.37287199e-05 2.83774309e-04 1.00513641e-02 5.88974878e-02
      3.41164786e-03 3.07881928e-05 0. 0. 2.71071360e-04 1.33767695e-04
      4.00283927e-04 1.21461565e-03 7.89646655e-02 3.62713076e-03
      1.85688958e-04 6.20539868e-05 2.71071360e-04 1.15182344e-02
      1.04764747e-02 3.66176805e-03 1.59050152e-01 6.04425728e-01
      1.19941011e-01 7.66880019e-03 2.96003767e-03 5.14051365e-03
      3.05076792e-05 8.91784566e-06 2.66855968e-05 1.46383618e-03
      7.58403838e-02 5.31224208e-03 0. 0. 3.05076792e-05 5.94381876e-02
      1.20963426e-02 4.70666327e-02 1.91081643e-01 6.04425728e-01
      3.82218361e-01 1.43802136e-01 1.25054158e-02 4.36538085e-02
      1.24441665e-02 1.31476931e-02 1.64663363e-02 2.07332239e-01
      4.09310907e-01 1.12960458e-01 6.21022377e-03 3.19799106e-03
      5.55375125e-03 5.65643935e-03 1.32875945e-02 6.72317967e-02
      2.34811977e-01 4.09310907e-01 8.07028636e-02 2.10703770e-03
      1.45363226e-03 2.52443249e-03 6.42163306e-02 1.30448779e-02
      6.85863718e-02 2.40042463e-01 4.09310907e-01 2.34749019e-01
      1.06969327e-01 1.44351600e-02 4.71630692e-02 2.91892439e-02
      6.72019087e-03 5.25068194e-02 2.17214063e-01 4.09310907e-01
      1.21199518e-01 3.60292122e-02 8.31990596e-03 2.14377586e-02 0.
      4.15765680e-02 3.98378670e-01 4.69427198e-01 4.69427198e-01
      8.66826847e-02 0. 0. 0. 0. 1.91956802e-04 8.21358641e-04
      1.03024002e-02 2.37961542e-02 0. 0. 0. 0. 0. 1.30879635e-03
      3.51198167e-02 3.66564155e-01 4.69427198e-01 1.72946513e-01
      9.42210015e-03 0. 0. 0. 8.72530873e-05 2.77557905e-04
      5.34414896e-04 6.29589136e-04 0. 0. 0. 0. 0. 0. 0. 4.04068315e-03
      5.47435954e-02 3.96622857e-03 0. 0. 0. 5.59414700e-02
      3.25149894e-02 9.46864933e-02 3.98653626e-01 4.12292093e-01
      2.93325454e-01 1.43483877e-01 2.77234726e-02 5.13568372e-02 0. 0.
      0. 4.30611428e-03 7.25557283e-02 3.48874950e-03 0. 0. 0.
      6.98163211e-02 9.10858065e-02 1.37871310e-01 4.12292093e-01
      4.12292093e-01 3.72123897e-01 1.47272289e-01 2.32128669e-02
      5.10776080e-02 6.01976998e-02 3.24372463e-02 1.01261407e-01
      2.74332196e-01 2.84556985e-01 2.39828795e-01 1.51046559e-01
      3.80805805e-02 5.52642569e-02 2.73625907e-02 1.45539558e-02
      5.51869273e-02 1.48357227e-01 2.84556985e-01 1.99694544e-01
      8.70010629e-02 2.50690710e-02 2.51201168e-02 7.51281977e-02
      1.13789730e-01 2.22065210e-01 2.84556985e-01 2.84556985e-01
      2.84556985e-01 1.49664879e-01 2.71694455e-02 5.49637787e-02
      3.41491811e-02 6.55469745e-02 1.73323482e-01 2.84556985e-01
      2.84556985e-01 2.08218455e-01 8.24051425e-02 1.62096824e-02
      2.49835365e-02 0. 0. 5.73010126e-04 2.21722022e-01 4.33849335e-01
      4.33849335e-01 3.24619003e-02 0. 0. 0. 0. 0. 0. 0. 0. 0. 0. 0. 0.
      0. 1.43142655e-01 4.33849335e-01 4.33849335e-01 4.14337099e-01
      1.96307823e-02 0. 0. 0. 0. 0. 0. 0. 0. 0. 0. 0.</_>
    <_>
      2.97379583e-01 1.25293002e-01 2.01917812e-01 2.97379583e-01
      2.97379583e-01 0. 0. 0. 8.49211961e-02 2.97379583e-01
      1.33305013e-01 2.54935145e-01 1.44563302e-01 4.83336905e-03
      2.97235878e-04 8.08343105e-03 3.02733406e-02 2.66223013e-01
      1.51823784e-04 1.50367133e-02 9.40791965e-02 2.97379583e-01
      2.97379583e-01 0. 0. 0. 1.35288399e-04 1.15718916e-01
      1.40604600e-01 2.97379583e-01 2.97379583e-01 6.43329322e-02
      1.93121855e-03 1.55352280e-02 2.99811121e-02 5.30080236e-02
      2.86754251e-01 9.78033468e-02 1.29014865e-01 4.07154970e-02
      1.01567118e-03 2.88647786e-03 5.43980338e-02 1.46259576e-01
      2.86754251e-01 2.86754251e-01 2.16241002e-01 9.35878605e-02
      1.37690425e-01 1.57743637e-02 2.89777433e-03 4.78657484e-02
      1.06463678e-01 2.86754251e-01 2.53444880e-01 1.90497845e-01
      2.34610632e-01 1.76954478e-01 8.77933763e-03 4.05655429e-02
      1.69722304e-01 1.80154607e-01 2.15914369e-01 1.19448967e-01
      2.18349427e-01 1.67444512e-01 2.32780233e-01 5.08288518e-02
      5.44324592e-02 1.79718718e-01 1.53192550e-01 1.60218030e-01
      3.26071352e-01 1.39362559e-01 1.18418321e-01 2.31436536e-01
      3.09820231e-02 5.56373131e-03 7.39465933e-03 9.21995845e-03
      1.52431995e-01 2.96602935e-01 5.90028316e-02 6.76498786e-02
      1.38123348e-01 3.26071352e-01 3.05196017e-01 1.14933938e-01
      9.87843275e-02 2.60586739e-01 2.49379594e-02 7.05714524e-02
      1.15122452e-01 3.26071352e-01 9.52420160e-02 1.46835009e-02
      1.79457758e-02 9.17033572e-03 1.59346536e-02 2.92287413e-02
      4.09810105e-03 5.06084375e-02 2.05267787e-01 3.26071352e-01
      2.90188044e-01 3.98392007e-02 2.16818675e-02 1.77533086e-02
      1.88859046e-01 9.47682410e-02 6.80077821e-02 1.25381708e-01
      2.30782464e-01 0. 0. 0. 3.39687727e-02 2.68695027e-01
      1.76013753e-01 2.19108567e-01 1.99607342e-01 2.80772299e-02
      9.15927906e-03 1.84647143e-02 2.29956564e-02 7.67859891e-02
      2.68695027e-01 2.68695027e-01 2.68695027e-01 2.68695027e-01
      2.33195066e-01 0. 6.65508851e-04 2.54821917e-03 1.42179772e-01
      2.68695027e-01 2.68695027e-01 2.68695027e-01 1.66294411e-01
      9.87043697e-03 2.51442082e-02 4.43254635e-02 4.77916412e-02
      2.58118600e-01 2.10759550e-01 1.61488652e-01 1.89058289e-01
      1.28503054e-01 4.30361694e-03 9.25156251e-02 1.72003999e-01
      1.41023010e-01 1.66919947e-01 2.34973520e-01 5.25215827e-02
      4.66560461e-02 5.00572734e-02 2.00110376e-02 1.03031926e-01
      1.80723712e-01 1.32579744e-01 2.35477760e-01 2.79051960e-01
      1.93516031e-01 2.34140113e-01 1.47625580e-01 3.97402560e-03
      1.33115619e-01 2.20291421e-01 1.74339920e-01 2.77793109e-01
      2.79051960e-01 6.13923185e-02 3.70395519e-02 2.64038481e-02
      6.78176573e-03 1.17687710e-01 2.01378614e-01 1.65523723e-01
      2.79051960e-01 2.65820086e-01 4.50420566e-02 4.18759361e-02
      1.07951701e-01 6.21391572e-02 1.57209206e-02 2.00725906e-02
      1.67819336e-02 1.34629399e-01 1.50812998e-01 1.83115918e-02
      1.66106373e-02 5.96092306e-02 3.30224305e-01 1.88329965e-01
      4.40715812e-02 5.99278733e-02 1.14831477e-01 3.30224305e-01
      4.75321487e-02 1.65504050e-02 2.38141641e-02 2.10889727e-02
      1.20360227e-02 2.07808781e-02 3.07659935e-02 3.30224305e-01
      3.30224305e-01 5.55865131e-02 5.03738970e-02 1.08203359e-01
      3.30224305e-01 3.12618434e-01 1.13641821e-01 1.38751701e-01
      3.30224305e-01 2.22893059e-01 1.45651177e-01 2.08933741e-01
      2.33370975e-01 2.33370975e-01 7.87475407e-02 3.56255770e-02
      2.92865839e-02 8.43342319e-02 2.33370975e-01 1.37449577e-01
      1.19676441e-01 1.15928963e-01 3.92642580e-02 1.48795530e-01
      9.85143185e-02 9.23877880e-02 1.98994428e-01 2.33370975e-01
      1.13445647e-01 1.31323501e-01 2.16562033e-01 2.29852706e-01
      1.79522380e-01 1.24752887e-01 1.40728250e-01 2.33370975e-01
      2.33370975e-01 1.23853453e-01 1.21446759e-01 1.64798856e-01
      6.68136179e-02 2.33370975e-01 1.57969296e-01 1.40348598e-01
      2.33370975e-01 2.10157514e-01 1.15193725e-01 1.18250735e-01
      1.67219818e-01 4.25265469e-02 1.64008170e-01 1.10666908e-01
      9.78364870e-02 1.62973002e-01 2.76444525e-01 1.03248447e-01
      9.38609242e-02 1.42092973e-01 1.75884329e-02 2.47823298e-02
      3.25165726e-02 4.43454236e-02 2.76444525e-01 2.76444525e-01
      1.64388806e-01 1.50175259e-01 2.40966931e-01 6.05905354e-02
      2.32936487e-01 1.41333744e-01 1.40440807e-01 2.76444525e-01
      2.76444525e-01 1.59368262e-01 1.48191288e-01 2.47747600e-01
      2.66786534e-02 2.43965946e-02 2.98443120e-02 4.92560640e-02
      2.76444525e-01 2.92588204e-01 2.61710435e-02 1.17752785e-02
      1.29837226e-02 4.04241914e-03 9.48964152e-03 1.95811894e-02
      3.69943455e-02 2.92588204e-01 2.92588204e-01 9.98321250e-02
      1.00757658e-01 2.14023754e-01 2.92588204e-01 8.85513797e-02
      4.38820571e-02 4.81219515e-02 2.92588204e-01 2.92588204e-01
      2.65262891e-02 1.68369003e-02 2.74147075e-02 4.46052570e-03
      3.42617817e-02 6.49242997e-02 8.45518112e-02 2.92588204e-01
      2.92588204e-01 1.16781823e-01 1.09261326e-01 2.25515395e-01
      2.25666806e-01 1.94158442e-02 3.84656638e-02 4.72832695e-02
      2.92588204e-01</_>
    <_>
      6.64155232e-04 2.88757496e-03 2.21727509e-02 8.70971531e-02
      4.84244734e-01 4.86807345e-04 0. 0. 0. 4.41863909e-02
      3.54249664e-02 9.43676531e-02 1.86175779e-01 4.84244734e-01
      1.37188975e-02 6.06356515e-03 3.31831793e-03 2.60398574e-02 0. 0.
      0. 1.20547018e-03 4.84244734e-01 3.12067161e-04 0. 0. 0.
      2.88808066e-03 3.55200563e-03 1.09942984e-02 2.13464033e-02
      4.84244734e-01 1.93114728e-02 1.95962079e-02 5.33767696e-03
      5.68337226e-03 1.95999369e-01 7.73012191e-02 1.28125742e-01
      1.58572465e-01 4.13298666e-01 5.78546040e-02 2.62927078e-02
      3.72041240e-02 1.55183390e-01 1.74105123e-01 5.82798794e-02
      5.98992482e-02 8.56047273e-02 4.13298666e-01 2.25676477e-01
      1.20371208e-01 8.99099112e-02 1.68750539e-01 7.92382732e-02
      3.32611091e-02 4.73156795e-02 6.49127439e-02 4.13298666e-01
      5.36250435e-02 5.05831167e-02 3.78477685e-02 4.79276627e-02
      1.06884025e-01 4.75084372e-02 4.75875959e-02 6.41176403e-02
      4.13298666e-01 5.12326770e-02 2.21397523e-02 4.28396165e-02
      5.03765792e-02 1.67096555e-02 6.29116362e-03 4.36289003e-03
      1.31080160e-02 4.87223357e-01 1.86812297e-01 7.33930394e-02
      2.54006293e-02 2.32332516e-02 0. 0. 0. 0. 4.87223357e-01
      5.46433628e-02 9.45694279e-03 3.71465227e-04 0. 1.06045865e-02
      6.74262783e-03 6.75052730e-03 1.17655052e-02 4.87223357e-01
      1.17727816e-02 2.35768710e-03 5.05448133e-03 4.48297104e-03 0. 0.
      0. 0. 4.87223357e-01 3.68249952e-04 0. 0. 0. 0. 0. 0.
      2.20060421e-04 4.98206526e-01 2.92499142e-04 0. 0. 0.
      3.76949226e-03 1.02942893e-02 6.96809916e-03 8.39457661e-03
      4.98206526e-01 1.12033971e-02 1.00082057e-02 3.32823652e-03
      3.31837940e-03 0. 0. 0. 4.77565074e-04 4.98206526e-01
      5.13102568e-04 0. 0. 0. 4.10840102e-03 1.86748188e-02
      1.22780427e-02 2.23118737e-02 4.98206526e-01 1.39389075e-02
      2.17173882e-02 4.13674954e-03 5.90673531e-04 2.92625017e-02
      5.98103367e-02 6.00448884e-02 5.44173159e-02 4.62971896e-01
      2.66423952e-02 3.37765701e-02 2.50844732e-02 3.55608724e-02
      3.57574113e-02 4.29524295e-02 6.56270981e-02 7.09607229e-02
      4.62971896e-01 3.12192645e-02 3.04637607e-02 3.49328779e-02
      4.90447693e-02 2.88500115e-02 9.76279676e-02 9.55630913e-02
      1.33107424e-01 4.62971896e-01 4.03777845e-02 8.31782743e-02
      3.02905776e-02 1.51670948e-02 2.73541976e-02 6.20794743e-02
      1.08020246e-01 1.81153461e-01 4.62971896e-01 5.55637367e-02
      6.57404959e-02 3.41793448e-02 2.62766648e-02 3.80436960e-03
      2.60916934e-03 6.46433607e-03 1.03642670e-02 4.98399794e-01
      7.35395541e-03 5.12136705e-03 5.47551923e-03 5.49625931e-03 0. 0.
      0. 0. 4.98399794e-01 0. 0. 0. 0. 2.33843201e-03 2.74649519e-03
      1.06020551e-02 2.72932723e-02 4.98399794e-01 1.17426645e-02
      8.08448810e-03 4.14979365e-03 3.30728991e-03 0. 0. 0. 0.
      4.98399794e-01 0. 0. 0. 0. 0. 0. 0. 4.42870252e-04 4.39691395e-01
      7.15625472e-03 7.34033893e-05 1.55647394e-05 0. 1.04754325e-03
      4.88801347e-03 5.00115473e-03 3.45587507e-02 4.39691395e-01
      2.99092699e-02 2.29374673e-02 5.58977108e-03 1.61092228e-03
      7.59246541e-05 0. 0. 3.68121109e-05 4.39691395e-01 1.54228225e-01
      5.61775900e-02 3.28524262e-02 8.78713839e-03 9.85135734e-02
      1.26951851e-03 1.28148822e-03 1.60504282e-02 4.39691395e-01
      2.86674201e-01 1.62524655e-01 1.47849306e-01 2.25883171e-01
      2.08066031e-02 2.56526470e-02 3.29405032e-02 1.10295475e-01
      3.25701982e-01 5.53765036e-02 6.90544546e-02 3.33512574e-02
      1.79787185e-02 2.57261936e-02 2.77278069e-02 4.63866927e-02
      1.11220032e-01 3.25701982e-01 7.43253753e-02 6.35340512e-02
      3.22780944e-02 1.99819729e-02 3.25701982e-01 2.09130775e-02
      1.40043451e-02 5.85494228e-02 3.25701982e-01 1.13771990e-01
      1.02343120e-01 1.07871011e-01 3.25701982e-01 3.25701982e-01
      1.02715537e-01 1.06961116e-01 1.77069202e-01 3.25701982e-01
      5.19203991e-02 3.64115871e-02 3.23014148e-02 3.25701982e-01
      3.50416498e-03 4.00590198e-03 9.11475718e-03 2.55641360e-02
      4.72136706e-01 2.07135435e-02 1.15951812e-02 3.70080885e-03
      2.31746840e-03 0. 0. 0. 7.58107577e-04 4.72136706e-01 0. 0. 0. 0.
      1.62927940e-01 7.81779736e-02 1.04209796e-01 2.20604643e-01
      4.72136706e-01 1.42736472e-02 5.23167010e-03 3.03215277e-03
      6.68121427e-02 3.79652064e-03 9.24062170e-03 1.86263490e-02
      7.03531951e-02 4.72136706e-01 0. 0. 0. 0.</_>
    <_>
      2.16127883e-04 3.55515658e-04 1.71929438e-04 3.40872747e-03
      4.43295166e-02 1.02569340e-02 4.76785097e-03 8.46896553e-04
      1.11508009e-04 2.82096807e-02 4.72447164e-02 2.21636593e-02
      8.57123435e-02 3.55486929e-01 3.55486929e-01 2.50900894e-01
      3.41903940e-02 6.37624413e-02 2.69177463e-02 6.71273172e-02
      1.00149244e-01 8.83281156e-02 2.45047938e-02 3.79774813e-03
      3.16627463e-03 6.58697332e-04 1.67262030e-03 3.55486929e-01
      3.55486929e-01 3.55486929e-01 2.64759034e-01 2.21024066e-01
      2.66526192e-01 1.18228205e-01 1.85652822e-02 2.35452726e-01
      2.14585401e-02 2.97813676e-02 1.61910243e-02 3.41588706e-02
      1.52980000e-01 2.24269286e-01 1.32104099e-01 8.29529464e-02
      1.04218438e-01 1.09725064e-02 1.33279264e-02 8.04897118e-03
      1.16883069e-02 2.65027612e-01 2.41626978e-01 8.16005319e-02
      1.23498000e-01 1.18617587e-01 2.65027612e-01 2.65027612e-01
      1.80144504e-01 7.15378821e-02 1.56717747e-01 2.00543702e-01
      7.40322769e-02 1.08043261e-01 2.65027612e-01 1.82303295e-01
      1.70956269e-01 5.51233813e-02 3.51238512e-02 2.65027612e-01
      2.65027612e-01 2.06556991e-01 2.65027612e-01 2.65027612e-01
      4.61139530e-03 5.45684202e-03 2.93506146e-03 1.56354662e-02
      3.90985101e-01 3.90985101e-01 9.30201709e-02 1.03835031e-01
      8.28251690e-02 5.75631057e-05 0. 0. 9.71441215e-04 8.11588764e-02
      1.72065832e-02 1.64311542e-03 3.78319703e-04 1.35955008e-04
      1.87211335e-02 4.48062345e-02 1.27186002e-02 2.33449470e-02
      3.90985101e-01 3.90985101e-01 3.90985101e-01 3.90985101e-01
      1.30405515e-01 0. 0. 0. 1.24899589e-03 1.19452134e-01
      9.65133607e-02 4.15879041e-02 2.71961559e-03 0. 5.59211569e-03
      2.09757034e-02 4.66726162e-02 8.50062892e-02 1.14799581e-01
      5.61696198e-03 6.61357306e-04 0. 1.84770121e-04 3.17004532e-01
      2.82235354e-01 2.47993737e-01 2.84155935e-01 3.17004532e-01
      6.78142533e-02 2.69055180e-02 6.18000962e-02 1.61628634e-01
      7.33429391e-04 5.94001263e-03 2.21711975e-02 8.29137042e-02
      3.17004532e-01 2.23267879e-02 2.83615454e-03 0. 0. 1.20787479e-01
      1.25811607e-01 2.23130688e-01 3.17004532e-01 3.17004532e-01
      2.70134926e-01 1.17856666e-01 1.52302563e-01 1.26274154e-01
      2.83159435e-01 1.71722487e-01 8.73453468e-02 7.64064044e-02
      1.05394915e-01 4.87540029e-02 3.83585878e-02 1.44508630e-01
      2.83159435e-01 8.54672864e-02 4.08449695e-02 8.62688757e-03
      6.11948548e-03 1.96397766e-01 1.91845194e-01 1.51872963e-01
      2.58602470e-01 2.83159435e-01 1.05053373e-01 8.29230323e-02
      1.15675896e-01 1.58066705e-01 2.83159435e-01 1.64874598e-01
      1.10266119e-01 1.87956035e-01 2.59646118e-01 2.59993207e-02
      1.42960101e-02 1.21075185e-02 4.11348604e-02 2.83159435e-01
      2.52275288e-01 1.20688029e-01 1.64859459e-01 1.91328928e-01
      3.28575657e-03 5.47028240e-03 1.06324500e-03 2.81320140e-03
      4.13112730e-01 4.22457904e-01 2.76103675e-01 2.27909788e-01
      8.47710446e-02 0. 0. 0. 3.84114355e-05 5.94852343e-02
      9.48673785e-02 1.77127067e-02 1.08072255e-03 0. 1.74132714e-04 0.
      0. 3.14732827e-02 4.22457904e-01 4.22457904e-01 1.50217026e-01
      1.15627393e-01 4.84438427e-02 0. 0. 0. 2.67564901e-03
      2.95831412e-01 1.20872706e-01 5.87758236e-03 2.84541980e-04 0. 0.
      0. 0. 1.49276787e-02 3.66938084e-01 2.83680633e-02 1.78198377e-03
      0. 0. 3.99122713e-03 3.87045965e-02 1.11555994e-01 1.86068356e-01
      3.66938084e-01 3.13484818e-01 1.61544040e-01 4.22489606e-02
      9.86043271e-03 0. 0. 0. 1.75047456e-03 2.97055334e-01
      1.02224216e-01 5.06884456e-02 6.35120552e-03 0. 9.92399082e-03
      1.03102587e-02 2.23120246e-02 4.41421121e-02 3.66938084e-01
      3.66938084e-01 3.66938084e-01 1.89899445e-01 8.50679427e-02
      9.13484301e-03 5.08499332e-02 9.00395140e-02 1.23157263e-01
      3.09771687e-01 1.95008889e-01 1.49715871e-01 3.88858803e-02
      1.72671266e-02 6.19138638e-03 1.94027629e-02 2.01726072e-02
      8.93998072e-02 3.09771687e-01 1.68128535e-01 5.17740026e-02
      1.43470289e-02 1.06531298e-02 1.25975892e-01 7.05919638e-02
      5.25665022e-02 5.95426522e-02 3.09771687e-01 3.09771687e-01
      2.74520457e-01 1.70334294e-01 1.54530585e-01 1.99366659e-01
      1.77750513e-01 1.54997244e-01 2.40966007e-01 3.09771687e-01
      2.47899324e-01 7.41134733e-02 6.13997281e-02 9.62749496e-02
      5.20341309e-05 5.60955610e-04 2.25991453e-03 1.50933117e-01
      4.68641907e-01 2.11099625e-01 7.30352849e-03 3.31783551e-03
      6.87365129e-04 0. 0. 0. 3.27299908e-02 3.04826677e-01
      2.33795531e-02 0. 0. 0. 1.00157410e-01 1.57283440e-01
      2.04090878e-01 4.68641907e-01 4.68641907e-01 2.15891972e-01
      8.39467254e-03 3.79582937e-03 5.22578182e-03 0. 8.26912059e-04
      8.40813573e-03 1.25243455e-01 1.88653171e-01 8.01269663e-04 0. 0.
      0.</_>
    <_>
      0. 1.88043559e-05 3.59321781e-03 2.58713998e-02 6.59555122e-02
      2.72801481e-02 1.42629491e-03 6.27819609e-05 0. 2.15115994e-01
      1.61141306e-01 2.97588974e-01 2.97588974e-01 2.97588974e-01
      2.97588974e-01 2.70249456e-01 1.74409285e-01 1.62363842e-01 0. 0.
      6.59158395e-05 3.31881875e-03 3.17673720e-02 2.47711092e-02
      2.88796122e-03 2.87440576e-04 0. 9.89559144e-02 5.70299998e-02
      7.84062669e-02 1.27746299e-01 2.97588974e-01 2.97588974e-01
      2.97588974e-01 2.97588974e-01 2.08719671e-01 2.16362759e-01
      1.69132292e-01 2.12910667e-01 1.97146192e-01 1.61521420e-01
      1.60864547e-01 1.44780442e-01 1.45074442e-01 2.16362759e-01
      2.16362759e-01 1.92755044e-01 2.16362759e-01 1.78066194e-01
      1.69590279e-01 1.85878545e-01 1.99690863e-01 1.62310719e-01
      2.09930718e-01 1.95519865e-01 1.05700731e-01 9.44574028e-02
      8.51580128e-02 1.01999111e-01 1.38177142e-01 1.07077546e-01
      1.60812676e-01 1.69620112e-01 2.00090602e-01 1.71615019e-01
      2.16362759e-01 1.77101627e-01 1.79454729e-01 8.32269713e-02
      3.03206127e-02 5.78146838e-02 9.54735205e-02 1.33374184e-01
      1.97037518e-01 3.18241268e-01 3.18241268e-01 3.18241268e-01
      3.18241268e-01 3.18241268e-01 1.92166671e-01 1.06026545e-01 0. 0.
      4.15338017e-03 3.13591212e-02 6.73206747e-02 3.11548840e-02
      3.47285112e-03 2.28345161e-05 0. 1.04913309e-01 1.98613703e-01
      3.18241268e-01 3.18241268e-01 3.18241268e-01 1.48970500e-01
      2.75659021e-02 9.85867716e-03 2.22615264e-02 0. 0. 4.69576474e-03
      2.37890687e-02 2.66083088e-02 2.75117601e-03 1.96737619e-05 0. 0.
      0. 0. 0. 2.37353845e-03 2.38607936e-02 9.53514874e-03
      3.53656616e-03 6.85344508e-04 0. 3.94005999e-02 2.11578205e-01
      2.65823245e-01 2.12038249e-01 3.22452098e-01 3.22452098e-01
      3.22452098e-01 3.06345075e-01 2.01485187e-01 0. 0. 0.
      1.58235896e-04 4.75143781e-03 1.15115941e-03 6.50654663e-04
      2.17437919e-04 0. 6.24518085e-04 4.68958691e-02 1.93122089e-01
      1.70185626e-01 3.22452098e-01 3.22452098e-01 3.22452098e-01
      7.74019808e-02 3.72720547e-02 7.44321793e-02 1.62358016e-01
      1.82177812e-01 1.96604013e-01 1.99978247e-01 2.43539974e-01
      1.26458749e-01 1.28805891e-01 1.02813222e-01 8.24138448e-02
      1.56104788e-01 2.11427972e-01 2.43539974e-01 2.43539974e-01
      1.84035629e-01 6.14518672e-02 7.89895207e-02 7.60147125e-02
      6.61144033e-02 1.02028966e-01 2.12434188e-01 1.74487457e-01
      2.21876979e-01 2.43539974e-01 1.47695079e-01 7.69952089e-02
      6.07283451e-02 8.71998668e-02 1.22598119e-01 2.42120415e-01
      2.43539974e-01 2.43539974e-01 2.18295425e-01 1.11693986e-01
      9.31133851e-02 9.06301066e-02 5.62209077e-02 1.18229419e-01
      2.58371025e-01 4.17996854e-01 4.17996854e-01 1.93797275e-01
      4.84009497e-02 2.89859865e-02 4.46049124e-02 0. 0. 1.38258585e-03
      3.67880287e-03 1.61376931e-02 0. 0. 0. 0. 7.17857480e-02
      9.14750770e-02 1.93567440e-01 4.17996854e-01 4.17996854e-01
      3.10263485e-01 9.44406688e-02 7.72289708e-02 8.74148756e-02 0. 0.
      0. 0. 1.61629692e-02 0. 0. 0. 0. 0. 0. 0. 0. 0. 0. 0. 0. 0.
      3.39759368e-04 6.89539537e-02 3.63431275e-01 3.63431275e-01
      3.63431275e-01 3.63431275e-01 2.36380160e-01 1.14617266e-01
      7.79772177e-02 0. 0. 0. 0. 0. 0. 0. 0. 0. 7.47470651e-04
      1.78088006e-02 7.97664449e-02 1.67367473e-01 3.63431275e-01
      3.63431275e-01 2.63740301e-01 1.05458915e-01 9.30300802e-02
      1.32957548e-01 1.22807451e-01 2.46009901e-01 2.23220244e-01
      2.46009901e-01 1.53957397e-01 1.08333781e-01 8.21812451e-02
      8.46899897e-02 1.79636389e-01 1.78721189e-01 2.46009901e-01
      2.46009901e-01 2.46009901e-01 1.72267705e-01 9.37578529e-02
      9.79730114e-02 1.07569166e-01 1.21269725e-01 8.78370702e-02
      9.19211134e-02 1.02674916e-01 2.35407338e-01 1.64381281e-01
      1.24859944e-01 1.06586143e-01 1.22228399e-01 1.82739109e-01
      1.56404316e-01 1.73992485e-01 2.01456010e-01 2.46009901e-01
      1.36623770e-01 1.27480164e-01 1.53097108e-01 1.60641998e-01
      1.48905367e-01 1.70823947e-01 2.54849046e-01 3.82501453e-01
      3.82501453e-01 2.62747943e-01 7.06896409e-02 7.77710229e-02
      8.20403248e-02 0. 0. 0. 0. 1.69756208e-02 0. 0. 0. 0.
      1.77564934e-01 1.85631901e-01 2.49921337e-01 3.75031441e-01
      3.82501453e-01 1.51276395e-01 1.38691872e-01 1.60376459e-01
      1.29496291e-01 0. 0. 0. 0. 1.21082412e-02 0. 0. 0. 0.</_>
    <_>
      0. 0. 1.11488847e-03 8.84183589e-03 4.86740321e-02 8.71789362e-03
      1.16084411e-03 0. 0. 4.11480553e-02 1.20337218e-01 3.35672319e-01
      3.35672319e-01 3.35672319e-01 3.35672319e-01 2.71411628e-01
      1.55761605e-04 1.74493541e-03 0. 0. 0. 7.19779753e-04
      1.93119943e-02 7.84354657e-03 1.69151602e-03 0. 0. 2.15659756e-03
      5.32625336e-03 4.89920750e-02 3.35672319e-01 3.35672319e-01
      3.35672319e-01 3.35672319e-01 6.22919702e-04 0. 4.11082767e-02
      8.08556601e-02 2.48515621e-01 1.88710093e-01 1.86215103e-01
      2.28434965e-01 1.21847607e-01 3.66967991e-02 4.42204997e-02
      3.01796030e-02 4.55838256e-02 2.73400873e-01 2.73400873e-01
      2.73400873e-01 1.48254558e-01 1.37210503e-01 9.90370214e-02
      7.20921159e-02 1.44606363e-03 8.32920894e-03 8.90700966e-02
      2.73400873e-01 2.73400873e-01 2.73400873e-01 1.94268718e-01
      2.16085627e-03 6.01101143e-04 6.57301571e-04 7.72269908e-03
      1.67547986e-01 2.73400873e-01 2.73400873e-01 2.20211908e-01
      8.65136907e-02 3.77447228e-03 1.32242253e-03 5.06923301e-03
      8.68837722e-03 3.69080335e-01 3.78646672e-01 3.78646672e-01
      2.90257394e-01 2.57482290e-01 1.47321269e-01 6.88700750e-02 0. 0.
      1.55359169e-03 6.74201595e-03 4.19846103e-02 5.71859861e-03
      1.16266508e-03 0. 0. 0. 2.66815699e-03 2.67613024e-01
      3.78646672e-01 3.78646672e-01 1.86802030e-01 2.74969526e-02
      3.80233605e-03 1.55249052e-03 0. 0. 1.37488509e-03 4.43237741e-03
      1.58463828e-02 5.84685709e-04 0. 0. 0. 0. 0. 0. 0. 2.79624783e-03
      7.61507312e-04 3.72287614e-04 0. 0. 0. 0. 9.73543990e-03
      4.00488108e-01 4.00488108e-01 4.00488108e-01 1.64268240e-01
      1.83068495e-03 0. 0. 0. 0. 0. 3.34790070e-03 0. 0. 0. 0. 0. 0.
      2.58310437e-02 4.00488108e-01 4.00488108e-01 4.00488108e-01
      7.67058358e-02 1.34215795e-03 0. 0. 0. 1.40224779e-02
      2.75905281e-01 2.89234519e-01 2.85198599e-01 8.85343850e-02
      1.32874108e-03 0. 0. 0. 2.01428365e-02 2.22079039e-01
      2.89234519e-01 2.89234519e-01 9.36578959e-02 1.03346526e-03 0.
      1.16673147e-03 2.26625544e-03 3.77069786e-02 2.89234519e-01
      2.89234519e-01 2.89234519e-01 7.37740695e-02 9.74160037e-04 0.
      1.50008337e-03 2.91375699e-03 6.09392822e-02 2.89234519e-01
      2.89234519e-01 2.89234519e-01 9.80151966e-02 7.57680100e-04 0. 0.
      0. 2.55121365e-02 2.29455084e-01 4.26309735e-01 4.26309735e-01
      1.09374881e-01 0. 0. 0. 0. 6.17948826e-05 8.04264331e-04
      1.29067693e-02 3.14921420e-03 0. 0. 0. 1.28260895e-03
      2.49133538e-03 8.57027024e-02 4.26309735e-01 4.26309735e-01
      4.26309735e-01 1.16870329e-01 0. 0. 0. 0. 0. 4.55941632e-03
      2.36370191e-02 3.15640541e-03 0. 0. 0. 0. 0. 0. 0. 2.75498349e-03
      0. 0. 0. 0. 0. 0. 1.95262842e-02 4.41311926e-01 4.41311926e-01
      4.41311926e-01 7.98992515e-02 0. 0. 0. 0. 0. 0. 3.06834467e-04 0.
      0. 0. 0. 3.93649098e-03 0. 0. 7.52841756e-02 4.41311926e-01
      4.41311926e-01 5.73199280e-02 7.01941252e-02 3.37931029e-02
      6.07320108e-03 1.00408541e-02 3.85934375e-02 2.85212696e-01
      3.46231878e-01 3.02510530e-01 6.49895743e-02 0. 0. 7.80840218e-03
      1.29096694e-02 5.54825254e-02 3.46231878e-01 3.46231878e-01
      1.72077090e-01 5.67255504e-02 0. 0. 6.84799999e-02 4.36239950e-02
      3.62615399e-02 9.59073156e-02 3.46231878e-01 2.71727443e-01
      3.38202603e-02 4.48084064e-02 2.56279297e-02 9.00559723e-02
      7.78019056e-02 8.42413306e-02 2.02163577e-01 3.46231878e-01
      1.53650910e-01 2.19782181e-02 3.07402965e-02 1.99420471e-02
      6.47222111e-03 1.07005564e-02 6.44644797e-02 5.20008326e-01
      5.20008326e-01 9.61810350e-02 1.99699551e-02 0. 0. 0. 0. 0.
      2.86201178e-03 1.59415491e-02 3.12009797e-04 0. 0. 0.
      7.74777010e-02 9.68679413e-02 1.32903308e-01 3.67956370e-01
      5.20008326e-01 2.82046068e-02 0. 0. 1.26229611e-03 0. 0. 0. 0.
      1.08729331e-02 0. 0. 0. 0.</_>
    <_>
      7.63868680e-03 3.20474729e-02 1.25064235e-02 3.67886364e-03
      8.96576734e-04 0. 0. 0. 8.05162010e-04 9.53710824e-02
      3.99821818e-01 1.85858697e-01 8.30200594e-03 6.32053940e-04 0. 0.
      0. 5.15597966e-03 1.69893056e-02 1.44881561e-01 1.63099825e-01
      2.08319947e-01 2.11150914e-01 0. 0. 0. 1.03520823e-03
      1.76343054e-01 4.05003279e-01 4.05003279e-01 4.05003279e-01
      3.63341540e-01 3.51858814e-03 0. 0. 5.63194137e-03 1.19562618e-01
      2.15474978e-01 1.30771995e-01 6.44114427e-03 0. 0. 3.45706870e-03
      9.58534852e-02 1.11726880e-01 8.94691870e-02 6.99317008e-02
      4.31075133e-02 3.59984511e-03 0. 2.59700668e-04 1.91836786e-02
      3.43532950e-01 1.82256788e-01 1.73569471e-01 3.43532950e-01
      3.43532950e-01 1.13924764e-01 4.91866060e-02 1.95526611e-02
      3.50646898e-02 2.20627159e-01 1.83999524e-01 1.28633067e-01
      1.58615649e-01 1.77605525e-01 5.07833995e-02 5.71985580e-02
      1.04806006e-01 1.97086930e-01 3.43532950e-01 3.43525976e-01
      6.23278227e-03 8.59963548e-05 2.57333886e-04 0. 4.94567037e-04
      4.57472447e-03 3.97066772e-02 3.88345569e-01 1.02340817e-01
      3.86009284e-04 0. 0. 0. 9.24130902e-04 4.72267810e-03
      1.69401746e-02 4.17150855e-02 8.22151545e-03 1.21731125e-02
      1.28994533e-03 5.69864502e-03 6.11022413e-02 3.44604731e-01
      3.88345569e-01 3.88345569e-01 3.88345569e-01 2.19333693e-01
      4.38702380e-04 0. 1.22575788e-04 2.10025534e-02 2.67637342e-01
      2.45572761e-01 2.04869553e-01 1.82452515e-01 1.51572889e-02
      2.00770935e-03 2.87812650e-02 5.17634414e-02 1.10981390e-01
      3.03622931e-01 2.09969152e-02 2.19878508e-03 2.14762200e-04
      6.47294291e-05 3.78337987e-02 3.03622931e-01 3.03622931e-01
      3.03622931e-01 3.03622931e-01 1.18115813e-01 4.05874923e-02
      2.35723127e-02 1.08593069e-02 6.00604508e-05 1.09928500e-04
      1.72755157e-03 1.78436339e-02 3.03622931e-01 1.33547664e-01
      6.58695623e-02 4.02564742e-02 4.11433913e-03 7.51052611e-03
      1.83481202e-02 3.67544889e-02 1.03200451e-01 3.03622931e-01
      3.03622931e-01 2.74498880e-01 3.03622931e-01 1.46387994e-01
      8.48041251e-02 2.37949535e-01 2.37949535e-01 1.71249345e-01
      1.73402235e-01 1.17429033e-01 9.75112319e-02 1.15258843e-01
      9.04748067e-02 7.46435151e-02 1.10015549e-01 1.78800762e-01
      1.93075880e-01 1.37828544e-01 1.80474579e-01 1.96871683e-01
      2.37949535e-01 1.31809071e-01 1.31894127e-01 1.27904981e-01
      8.81103575e-02 1.04424492e-01 1.72128320e-01 1.73335060e-01
      1.64575815e-01 2.37949535e-01 2.14398220e-01 2.15389207e-01
      2.37949535e-01 2.37949535e-01 2.37949535e-01 1.02257401e-01
      1.09516710e-01 9.65754092e-02 1.23894587e-01 1.28980532e-01
      8.39864742e-03 2.70674769e-02 1.15607806e-01 2.78586864e-01
      2.78586864e-01 2.78586864e-01 2.43506625e-01 2.78586864e-01
      4.71144654e-02 2.60682737e-05 4.17432748e-04 1.52865918e-02
      1.37659058e-01 2.78586864e-01 1.41785726e-01 7.45867863e-02
      4.22193296e-02 1.73990347e-03 7.87719190e-02 2.78586864e-01
      2.78586864e-01 2.78586864e-01 2.78586864e-01 6.78662509e-02
      3.00400816e-02 1.43255461e-02 5.22267632e-03 1.63992902e-03
      3.50623764e-02 9.27379280e-02 2.77005702e-01 2.78586864e-01
